digraph Tree {
node [shape=box, fontname="helvetica"] ;
edge [fontname="helvetica"] ;
0 [label="alcohol <= 10.75\ngini = 0.677\nsamples = 3918\nvalue = [19, 135, 1168, 1751, 703, 137, 5]"] ;
1 [label="volatile acidity <= 0.237\ngini = 0.626\nsamples = 2363\nvalue = [11, 104, 1003, 1016, 199, 29, 1]"] ;
0 -> 1 [labeldistance=2.5, labelangle=45, headlabel="True"] ;
2 [label="alcohol <= 8.85\ngini = 0.615\nsamples = 891\nvalue = [4, 20, 214, 489, 141, 23, 0]"] ;
1 -> 2 ;
3 [label="fixed acidity <= 7.25\ngini = 0.727\nsamples = 73\nvalue = [1, 0, 26, 21, 16, 9, 0]"] ;
2 -> 3 ;
4 [label="pH <= 3.095\ngini = 0.565\nsamples = 43\nvalue = [1, 0, 21, 19, 1, 1, 0]"] ;
3 -> 4 ;
5 [label="fixed acidity <= 6.85\ngini = 0.255\nsamples = 14\nvalue = [0, 0, 1, 12, 0, 1, 0]"] ;
4 -> 5 ;
6 [label="fixed acidity <= 6.3\ngini = 0.142\nsamples = 13\nvalue = [0, 0, 1, 12, 0, 0, 0]"] ;
5 -> 6 ;
7 [label="density <= 0.998\ngini = 0.5\nsamples = 2\nvalue = [0, 0, 1, 1, 0, 0, 0]"] ;
6 -> 7 ;
8 [label="gini = 0.0\nsamples = 1\nvalue = [0, 0, 1, 0, 0, 0, 0]"] ;
7 -> 8 ;
9 [label="gini = 0.0\nsamples = 1\nvalue = [0, 0, 0, 1, 0, 0, 0]"] ;
7 -> 9 ;
10 [label="gini = 0.0\nsamples = 11\nvalue = [0, 0, 0, 11, 0, 0, 0]"] ;
6 -> 10 ;
11 [label="gini = 0.0\nsamples = 1\nvalue = [0, 0, 0, 0, 0, 1, 0]"] ;
5 -> 11 ;
12 [label="density <= 1.0\ngini = 0.464\nsamples = 29\nvalue = [1, 0, 20, 7, 1, 0, 0]"] ;
4 -> 12 ;
13 [label="residual sugar <= 16.75\ngini = 0.602\nsamples = 17\nvalue = [1, 0, 8, 7, 1, 0, 0]"] ;
12 -> 13 ;
14 [label="pH <= 3.405\ngini = 0.446\nsamples = 11\nvalue = [1, 0, 8, 1, 1, 0, 0]"] ;
13 -> 14 ;
15 [label="volatile acidity <= 0.185\ngini = 0.198\nsamples = 9\nvalue = [0, 0, 8, 0, 1, 0, 0]"] ;
14 -> 15 ;
16 [label="sulphates <= 0.465\ngini = 0.5\nsamples = 2\nvalue = [0, 0, 1, 0, 1, 0, 0]"] ;
15 -> 16 ;
17 [label="gini = 0.0\nsamples = 1\nvalue = [0, 0, 0, 0, 1, 0, 0]"] ;
16 -> 17 ;
18 [label="gini = 0.0\nsamples = 1\nvalue = [0, 0, 1, 0, 0, 0, 0]"] ;
16 -> 18 ;
19 [label="gini = 0.0\nsamples = 7\nvalue = [0, 0, 7, 0, 0, 0, 0]"] ;
15 -> 19 ;
20 [label="total sulfur dioxide <= 154.5\ngini = 0.5\nsamples = 2\nvalue = [1, 0, 0, 1, 0, 0, 0]"] ;
14 -> 20 ;
21 [label="gini = 0.0\nsamples = 1\nvalue = [0, 0, 0, 1, 0, 0, 0]"] ;
20 -> 21 ;
22 [label="gini = 0.0\nsamples = 1\nvalue = [1, 0, 0, 0, 0, 0, 0]"] ;
20 -> 22 ;
23 [label="gini = 0.0\nsamples = 6\nvalue = [0, 0, 0, 6, 0, 0, 0]"] ;
13 -> 23 ;
24 [label="gini = 0.0\nsamples = 12\nvalue = [0, 0, 12, 0, 0, 0, 0]"] ;
12 -> 24 ;
25 [label="free sulfur dioxide <= 36.0\ngini = 0.647\nsamples = 30\nvalue = [0, 0, 5, 2, 15, 8, 0]"] ;
3 -> 25 ;
26 [label="gini = 0.0\nsamples = 13\nvalue = [0, 0, 0, 0, 13, 0, 0]"] ;
25 -> 26 ;
27 [label="volatile acidity <= 0.195\ngini = 0.664\nsamples = 17\nvalue = [0, 0, 5, 2, 2, 8, 0]"] ;
25 -> 27 ;
28 [label="gini = 0.0\nsamples = 8\nvalue = [0, 0, 0, 0, 0, 8, 0]"] ;
27 -> 28 ;
29 [label="sulphates <= 0.61\ngini = 0.593\nsamples = 9\nvalue = [0, 0, 5, 2, 2, 0, 0]"] ;
27 -> 29 ;
30 [label="gini = 0.0\nsamples = 5\nvalue = [0, 0, 5, 0, 0, 0, 0]"] ;
29 -> 30 ;
31 [label="alcohol <= 8.7\ngini = 0.5\nsamples = 4\nvalue = [0, 0, 0, 2, 2, 0, 0]"] ;
29 -> 31 ;
32 [label="gini = 0.0\nsamples = 2\nvalue = [0, 0, 0, 0, 2, 0, 0]"] ;
31 -> 32 ;
33 [label="gini = 0.0\nsamples = 2\nvalue = [0, 0, 0, 2, 0, 0, 0]"] ;
31 -> 33 ;
34 [label="free sulfur dioxide <= 24.5\ngini = 0.596\nsamples = 818\nvalue = [3, 20, 188, 468, 125, 14, 0]"] ;
2 -> 34 ;
35 [label="total sulfur dioxide <= 168.5\ngini = 0.645\nsamples = 201\nvalue = [2, 11, 67, 96, 22, 3, 0]"] ;
34 -> 35 ;
36 [label="fixed acidity <= 6.85\ngini = 0.631\nsamples = 194\nvalue = [2, 11, 67, 95, 16, 3, 0]"] ;
35 -> 36 ;
37 [label="fixed acidity <= 5.55\ngini = 0.488\nsamples = 72\nvalue = [0, 1, 18, 48, 5, 0, 0]"] ;
36 -> 37 ;
38 [label="alcohol <= 10.05\ngini = 0.406\nsamples = 8\nvalue = [0, 0, 6, 1, 1, 0, 0]"] ;
37 -> 38 ;
39 [label="fixed acidity <= 5.15\ngini = 0.245\nsamples = 7\nvalue = [0, 0, 6, 1, 0, 0, 0]"] ;
38 -> 39 ;
40 [label="gini = 0.0\nsamples = 1\nvalue = [0, 0, 0, 1, 0, 0, 0]"] ;
39 -> 40 ;
41 [label="gini = 0.0\nsamples = 6\nvalue = [0, 0, 6, 0, 0, 0, 0]"] ;
39 -> 41 ;
42 [label="gini = 0.0\nsamples = 1\nvalue = [0, 0, 0, 0, 1, 0, 0]"] ;
38 -> 42 ;
43 [label="citric acid <= 0.215\ngini = 0.421\nsamples = 64\nvalue = [0, 1, 12, 47, 4, 0, 0]"] ;
37 -> 43 ;
44 [label="gini = 0.0\nsamples = 4\nvalue = [0, 0, 4, 0, 0, 0, 0]"] ;
43 -> 44 ;
45 [label="alcohol <= 10.55\ngini = 0.364\nsamples = 60\nvalue = [0, 1, 8, 47, 4, 0, 0]"] ;
43 -> 45 ;
46 [label="citric acid <= 0.445\ngini = 0.303\nsamples = 57\nvalue = [0, 1, 7, 47, 2, 0, 0]"] ;
45 -> 46 ;
47 [label="total sulfur dioxide <= 65.5\ngini = 0.17\nsamples = 44\nvalue = [0, 1, 1, 40, 2, 0, 0]"] ;
46 -> 47 ;
48 [label="pH <= 3.34\ngini = 0.5\nsamples = 2\nvalue = [0, 1, 0, 0, 1, 0, 0]"] ;
47 -> 48 ;
49 [label="gini = 0.0\nsamples = 1\nvalue = [0, 1, 0, 0, 0, 0, 0]"] ;
48 -> 49 ;
50 [label="gini = 0.0\nsamples = 1\nvalue = [0, 0, 0, 0, 1, 0, 0]"] ;
48 -> 50 ;
51 [label="sulphates <= 0.655\ngini = 0.092\nsamples = 42\nvalue = [0, 0, 1, 40, 1, 0, 0]"] ;
47 -> 51 ;
52 [label="density <= 0.992\ngini = 0.048\nsamples = 41\nvalue = [0, 0, 1, 40, 0, 0, 0]"] ;
51 -> 52 ;
53 [label="total sulfur dioxide <= 117.0\ngini = 0.5\nsamples = 2\nvalue = [0, 0, 1, 1, 0, 0, 0]"] ;
52 -> 53 ;
54 [label="gini = 0.0\nsamples = 1\nvalue = [0, 0, 1, 0, 0, 0, 0]"] ;
53 -> 54 ;
55 [label="gini = 0.0\nsamples = 1\nvalue = [0, 0, 0, 1, 0, 0, 0]"] ;
53 -> 55 ;
56 [label="gini = 0.0\nsamples = 39\nvalue = [0, 0, 0, 39, 0, 0, 0]"] ;
52 -> 56 ;
57 [label="gini = 0.0\nsamples = 1\nvalue = [0, 0, 0, 0, 1, 0, 0]"] ;
51 -> 57 ;
58 [label="volatile acidity <= 0.205\ngini = 0.497\nsamples = 13\nvalue = [0, 0, 6, 7, 0, 0, 0]"] ;
46 -> 58 ;
59 [label="fixed acidity <= 5.9\ngini = 0.245\nsamples = 7\nvalue = [0, 0, 1, 6, 0, 0, 0]"] ;
58 -> 59 ;
60 [label="gini = 0.0\nsamples = 1\nvalue = [0, 0, 1, 0, 0, 0, 0]"] ;
59 -> 60 ;
61 [label="gini = 0.0\nsamples = 6\nvalue = [0, 0, 0, 6, 0, 0, 0]"] ;
59 -> 61 ;
62 [label="residual sugar <= 1.45\ngini = 0.278\nsamples = 6\nvalue = [0, 0, 5, 1, 0, 0, 0]"] ;
58 -> 62 ;
63 [label="gini = 0.0\nsamples = 1\nvalue = [0, 0, 0, 1, 0, 0, 0]"] ;
62 -> 63 ;
64 [label="gini = 0.0\nsamples = 5\nvalue = [0, 0, 5, 0, 0, 0, 0]"] ;
62 -> 64 ;
65 [label="pH <= 3.11\ngini = 0.444\nsamples = 3\nvalue = [0, 0, 1, 0, 2, 0, 0]"] ;
45 -> 65 ;
66 [label="gini = 0.0\nsamples = 1\nvalue = [0, 0, 1, 0, 0, 0, 0]"] ;
65 -> 66 ;
67 [label="gini = 0.0\nsamples = 2\nvalue = [0, 0, 0, 0, 2, 0, 0]"] ;
65 -> 67 ;
68 [label="sulphates <= 0.665\ngini = 0.675\nsamples = 122\nvalue = [2, 10, 49, 47, 11, 3, 0]"] ;
36 -> 68 ;
69 [label="alcohol <= 10.15\ngini = 0.686\nsamples = 110\nvalue = [2, 10, 38, 46, 11, 3, 0]"] ;
68 -> 69 ;
70 [label="residual sugar <= 2.75\ngini = 0.619\nsamples = 60\nvalue = [2, 3, 30, 21, 4, 0, 0]"] ;
69 -> 70 ;
71 [label="density <= 0.992\ngini = 0.488\nsamples = 36\nvalue = [1, 2, 25, 5, 3, 0, 0]"] ;
70 -> 71 ;
72 [label="gini = 0.0\nsamples = 2\nvalue = [0, 0, 0, 0, 2, 0, 0]"] ;
71 -> 72 ;
73 [label="volatile acidity <= 0.215\ngini = 0.433\nsamples = 34\nvalue = [1, 2, 25, 5, 1, 0, 0]"] ;
71 -> 73 ;
74 [label="free sulfur dioxide <= 5.5\ngini = 0.307\nsamples = 29\nvalue = [1, 1, 24, 2, 1, 0, 0]"] ;
73 -> 74 ;
75 [label="gini = 0.0\nsamples = 1\nvalue = [1, 0, 0, 0, 0, 0, 0]"] ;
74 -> 75 ;
76 [label="sulphates <= 0.65\ngini = 0.258\nsamples = 28\nvalue = [0, 1, 24, 2, 1, 0, 0]"] ;
74 -> 76 ;
77 [label="citric acid <= 0.215\ngini = 0.203\nsamples = 27\nvalue = [0, 0, 24, 2, 1, 0, 0]"] ;
76 -> 77 ;
78 [label="gini = 0.0\nsamples = 1\nvalue = [0, 0, 0, 1, 0, 0, 0]"] ;
77 -> 78 ;
79 [label="alcohol <= 9.85\ngini = 0.145\nsamples = 26\nvalue = [0, 0, 24, 1, 1, 0, 0]"] ;
77 -> 79 ;
80 [label="alcohol <= 9.6\ngini = 0.37\nsamples = 9\nvalue = [0, 0, 7, 1, 1, 0, 0]"] ;
79 -> 80 ;
81 [label="gini = 0.0\nsamples = 7\nvalue = [0, 0, 7, 0, 0, 0, 0]"] ;
80 -> 81 ;
82 [label="density <= 0.994\ngini = 0.5\nsamples = 2\nvalue = [0, 0, 0, 1, 1, 0, 0]"] ;
80 -> 82 ;
83 [label="gini = 0.0\nsamples = 1\nvalue = [0, 0, 0, 0, 1, 0, 0]"] ;
82 -> 83 ;
84 [label="gini = 0.0\nsamples = 1\nvalue = [0, 0, 0, 1, 0, 0, 0]"] ;
82 -> 84 ;
85 [label="gini = 0.0\nsamples = 17\nvalue = [0, 0, 17, 0, 0, 0, 0]"] ;
79 -> 85 ;
86 [label="gini = 0.0\nsamples = 1\nvalue = [0, 1, 0, 0, 0, 0, 0]"] ;
76 -> 86 ;
87 [label="residual sugar <= 2.25\ngini = 0.56\nsamples = 5\nvalue = [0, 1, 1, 3, 0, 0, 0]"] ;
73 -> 87 ;
88 [label="gini = 0.0\nsamples = 3\nvalue = [0, 0, 0, 3, 0, 0, 0]"] ;
87 -> 88 ;
89 [label="total sulfur dioxide <= 121.5\ngini = 0.5\nsamples = 2\nvalue = [0, 1, 1, 0, 0, 0, 0]"] ;
87 -> 89 ;
90 [label="gini = 0.0\nsamples = 1\nvalue = [0, 0, 1, 0, 0, 0, 0]"] ;
89 -> 90 ;
91 [label="gini = 0.0\nsamples = 1\nvalue = [0, 1, 0, 0, 0, 0, 0]"] ;
89 -> 91 ;
92 [label="sulphates <= 0.555\ngini = 0.507\nsamples = 24\nvalue = [1, 1, 5, 16, 1, 0, 0]"] ;
70 -> 92 ;
93 [label="alcohol <= 9.55\ngini = 0.446\nsamples = 22\nvalue = [1, 1, 3, 16, 1, 0, 0]"] ;
92 -> 93 ;
94 [label="free sulfur dioxide <= 23.5\ngini = 0.142\nsamples = 13\nvalue = [0, 0, 0, 12, 1, 0, 0]"] ;
93 -> 94 ;
95 [label="gini = 0.0\nsamples = 12\nvalue = [0, 0, 0, 12, 0, 0, 0]"] ;
94 -> 95 ;
96 [label="gini = 0.0\nsamples = 1\nvalue = [0, 0, 0, 0, 1, 0, 0]"] ;
94 -> 96 ;
97 [label="residual sugar <= 4.1\ngini = 0.667\nsamples = 9\nvalue = [1, 1, 3, 4, 0, 0, 0]"] ;
93 -> 97 ;
98 [label="gini = 0.0\nsamples = 3\nvalue = [0, 0, 0, 3, 0, 0, 0]"] ;
97 -> 98 ;
99 [label="free sulfur dioxide <= 21.0\ngini = 0.667\nsamples = 6\nvalue = [1, 1, 3, 1, 0, 0, 0]"] ;
97 -> 99 ;
100 [label="chlorides <= 0.035\ngini = 0.375\nsamples = 4\nvalue = [1, 0, 3, 0, 0, 0, 0]"] ;
99 -> 100 ;
101 [label="gini = 0.0\nsamples = 1\nvalue = [1, 0, 0, 0, 0, 0, 0]"] ;
100 -> 101 ;
102 [label="gini = 0.0\nsamples = 3\nvalue = [0, 0, 3, 0, 0, 0, 0]"] ;
100 -> 102 ;
103 [label="citric acid <= 0.39\ngini = 0.5\nsamples = 2\nvalue = [0, 1, 0, 1, 0, 0, 0]"] ;
99 -> 103 ;
104 [label="gini = 0.0\nsamples = 1\nvalue = [0, 1, 0, 0, 0, 0, 0]"] ;
103 -> 104 ;
105 [label="gini = 0.0\nsamples = 1\nvalue = [0, 0, 0, 1, 0, 0, 0]"] ;
103 -> 105 ;
106 [label="gini = 0.0\nsamples = 2\nvalue = [0, 0, 2, 0, 0, 0, 0]"] ;
92 -> 106 ;
107 [label="chlorides <= 0.041\ngini = 0.682\nsamples = 50\nvalue = [0, 7, 8, 25, 7, 3, 0]"] ;
69 -> 107 ;
108 [label="chlorides <= 0.033\ngini = 0.789\nsamples = 21\nvalue = [0, 5, 3, 5, 5, 3, 0]"] ;
107 -> 108 ;
109 [label="citric acid <= 0.32\ngini = 0.571\nsamples = 7\nvalue = [0, 0, 1, 4, 0, 2, 0]"] ;
108 -> 109 ;
110 [label="chlorides <= 0.023\ngini = 0.444\nsamples = 3\nvalue = [0, 0, 1, 0, 0, 2, 0]"] ;
109 -> 110 ;
111 [label="gini = 0.0\nsamples = 1\nvalue = [0, 0, 1, 0, 0, 0, 0]"] ;
110 -> 111 ;
112 [label="gini = 0.0\nsamples = 2\nvalue = [0, 0, 0, 0, 0, 2, 0]"] ;
110 -> 112 ;
113 [label="gini = 0.0\nsamples = 4\nvalue = [0, 0, 0, 4, 0, 0, 0]"] ;
109 -> 113 ;
114 [label="residual sugar <= 5.25\ngini = 0.714\nsamples = 14\nvalue = [0, 5, 2, 1, 5, 1, 0]"] ;
108 -> 114 ;
115 [label="volatile acidity <= 0.185\ngini = 0.408\nsamples = 7\nvalue = [0, 5, 0, 0, 2, 0, 0]"] ;
114 -> 115 ;
116 [label="pH <= 3.195\ngini = 0.444\nsamples = 3\nvalue = [0, 1, 0, 0, 2, 0, 0]"] ;
115 -> 116 ;
117 [label="gini = 0.0\nsamples = 2\nvalue = [0, 0, 0, 0, 2, 0, 0]"] ;
116 -> 117 ;
118 [label="gini = 0.0\nsamples = 1\nvalue = [0, 1, 0, 0, 0, 0, 0]"] ;
116 -> 118 ;
119 [label="gini = 0.0\nsamples = 4\nvalue = [0, 4, 0, 0, 0, 0, 0]"] ;
115 -> 119 ;
120 [label="density <= 0.994\ngini = 0.694\nsamples = 7\nvalue = [0, 0, 2, 1, 3, 1, 0]"] ;
114 -> 120 ;
121 [label="gini = 0.0\nsamples = 2\nvalue = [0, 0, 2, 0, 0, 0, 0]"] ;
120 -> 121 ;
122 [label="chlorides <= 0.036\ngini = 0.56\nsamples = 5\nvalue = [0, 0, 0, 1, 3, 1, 0]"] ;
120 -> 122 ;
123 [label="residual sugar <= 8.35\ngini = 0.5\nsamples = 2\nvalue = [0, 0, 0, 1, 0, 1, 0]"] ;
122 -> 123 ;
124 [label="gini = 0.0\nsamples = 1\nvalue = [0, 0, 0, 0, 0, 1, 0]"] ;
123 -> 124 ;
125 [label="gini = 0.0\nsamples = 1\nvalue = [0, 0, 0, 1, 0, 0, 0]"] ;
123 -> 125 ;
126 [label="gini = 0.0\nsamples = 3\nvalue = [0, 0, 0, 0, 3, 0, 0]"] ;
122 -> 126 ;
127 [label="citric acid <= 0.265\ngini = 0.485\nsamples = 29\nvalue = [0, 2, 5, 20, 2, 0, 0]"] ;
107 -> 127 ;
128 [label="gini = 0.0\nsamples = 1\nvalue = [0, 0, 0, 0, 1, 0, 0]"] ;
127 -> 128 ;
129 [label="pH <= 2.94\ngini = 0.452\nsamples = 28\nvalue = [0, 2, 5, 20, 1, 0, 0]"] ;
127 -> 129 ;
130 [label="gini = 0.0\nsamples = 1\nvalue = [0, 1, 0, 0, 0, 0, 0]"] ;
129 -> 130 ;
131 [label="density <= 0.994\ngini = 0.414\nsamples = 27\nvalue = [0, 1, 5, 20, 1, 0, 0]"] ;
129 -> 131 ;
132 [label="sulphates <= 0.435\ngini = 0.473\nsamples = 13\nvalue = [0, 0, 5, 8, 0, 0, 0]"] ;
131 -> 132 ;
133 [label="gini = 0.0\nsamples = 5\nvalue = [0, 0, 0, 5, 0, 0, 0]"] ;
132 -> 133 ;
134 [label="citric acid <= 0.38\ngini = 0.469\nsamples = 8\nvalue = [0, 0, 5, 3, 0, 0, 0]"] ;
132 -> 134 ;
135 [label="total sulfur dioxide <= 158.5\ngini = 0.375\nsamples = 4\nvalue = [0, 0, 1, 3, 0, 0, 0]"] ;
134 -> 135 ;
136 [label="gini = 0.0\nsamples = 3\nvalue = [0, 0, 0, 3, 0, 0, 0]"] ;
135 -> 136 ;
137 [label="gini = 0.0\nsamples = 1\nvalue = [0, 0, 1, 0, 0, 0, 0]"] ;
135 -> 137 ;
138 [label="gini = 0.0\nsamples = 4\nvalue = [0, 0, 4, 0, 0, 0, 0]"] ;
134 -> 138 ;
139 [label="fixed acidity <= 7.8\ngini = 0.255\nsamples = 14\nvalue = [0, 1, 0, 12, 1, 0, 0]"] ;
131 -> 139 ;
140 [label="gini = 0.0\nsamples = 9\nvalue = [0, 0, 0, 9, 0, 0, 0]"] ;
139 -> 140 ;
141 [label="volatile acidity <= 0.15\ngini = 0.56\nsamples = 5\nvalue = [0, 1, 0, 3, 1, 0, 0]"] ;
139 -> 141 ;
142 [label="gini = 0.0\nsamples = 1\nvalue = [0, 0, 0, 0, 1, 0, 0]"] ;
141 -> 142 ;
143 [label="alcohol <= 10.25\ngini = 0.375\nsamples = 4\nvalue = [0, 1, 0, 3, 0, 0, 0]"] ;
141 -> 143 ;
144 [label="gini = 0.0\nsamples = 1\nvalue = [0, 1, 0, 0, 0, 0, 0]"] ;
143 -> 144 ;
145 [label="gini = 0.0\nsamples = 3\nvalue = [0, 0, 0, 3, 0, 0, 0]"] ;
143 -> 145 ;
146 [label="residual sugar <= 6.8\ngini = 0.153\nsamples = 12\nvalue = [0, 0, 11, 1, 0, 0, 0]"] ;
68 -> 146 ;
147 [label="gini = 0.0\nsamples = 11\nvalue = [0, 0, 11, 0, 0, 0, 0]"] ;
146 -> 147 ;
148 [label="gini = 0.0\nsamples = 1\nvalue = [0, 0, 0, 1, 0, 0, 0]"] ;
146 -> 148 ;
149 [label="alcohol <= 9.25\ngini = 0.245\nsamples = 7\nvalue = [0, 0, 0, 1, 6, 0, 0]"] ;
35 -> 149 ;
150 [label="gini = 0.0\nsamples = 6\nvalue = [0, 0, 0, 0, 6, 0, 0]"] ;
149 -> 150 ;
151 [label="gini = 0.0\nsamples = 1\nvalue = [0, 0, 0, 1, 0, 0, 0]"] ;
149 -> 151 ;
152 [label="sulphates <= 0.9\ngini = 0.57\nsamples = 617\nvalue = [1, 9, 121, 372, 103, 11, 0]"] ;
34 -> 152 ;
153 [label="sulphates <= 0.475\ngini = 0.565\nsamples = 612\nvalue = [1, 9, 121, 372, 98, 11, 0]"] ;
152 -> 153 ;
154 [label="total sulfur dioxide <= 212.25\ngini = 0.604\nsamples = 294\nvalue = [1, 6, 77, 164, 36, 10, 0]"] ;
153 -> 154 ;
155 [label="total sulfur dioxide <= 122.5\ngini = 0.593\nsamples = 287\nvalue = [1, 6, 77, 162, 36, 5, 0]"] ;
154 -> 155 ;
156 [label="fixed acidity <= 8.4\ngini = 0.514\nsamples = 85\nvalue = [0, 2, 10, 57, 12, 4, 0]"] ;
155 -> 156 ;
157 [label="pH <= 3.28\ngini = 0.461\nsamples = 80\nvalue = [0, 0, 8, 57, 11, 4, 0]"] ;
156 -> 157 ;
158 [label="fixed acidity <= 6.85\ngini = 0.383\nsamples = 62\nvalue = [0, 0, 6, 48, 4, 4, 0]"] ;
157 -> 158 ;
159 [label="alcohol <= 10.65\ngini = 0.062\nsamples = 31\nvalue = [0, 0, 0, 30, 1, 0, 0]"] ;
158 -> 159 ;
160 [label="gini = 0.0\nsamples = 29\nvalue = [0, 0, 0, 29, 0, 0, 0]"] ;
159 -> 160 ;
161 [label="residual sugar <= 4.4\ngini = 0.5\nsamples = 2\nvalue = [0, 0, 0, 1, 1, 0, 0]"] ;
159 -> 161 ;
162 [label="gini = 0.0\nsamples = 1\nvalue = [0, 0, 0, 1, 0, 0, 0]"] ;
161 -> 162 ;
163 [label="gini = 0.0\nsamples = 1\nvalue = [0, 0, 0, 0, 1, 0, 0]"] ;
161 -> 163 ;
164 [label="volatile acidity <= 0.125\ngini = 0.599\nsamples = 31\nvalue = [0, 0, 6, 18, 3, 4, 0]"] ;
158 -> 164 ;
165 [label="gini = 0.0\nsamples = 3\nvalue = [0, 0, 0, 0, 0, 3, 0]"] ;
164 -> 165 ;
166 [label="chlorides <= 0.042\ngini = 0.528\nsamples = 28\nvalue = [0, 0, 6, 18, 3, 1, 0]"] ;
164 -> 166 ;
167 [label="volatile acidity <= 0.15\ngini = 0.198\nsamples = 9\nvalue = [0, 0, 0, 8, 1, 0, 0]"] ;
166 -> 167 ;
168 [label="gini = 0.0\nsamples = 1\nvalue = [0, 0, 0, 0, 1, 0, 0]"] ;
167 -> 168 ;
169 [label="gini = 0.0\nsamples = 8\nvalue = [0, 0, 0, 8, 0, 0, 0]"] ;
167 -> 169 ;
170 [label="chlorides <= 0.045\ngini = 0.609\nsamples = 19\nvalue = [0, 0, 6, 10, 2, 1, 0]"] ;
166 -> 170 ;
171 [label="gini = 0.0\nsamples = 3\nvalue = [0, 0, 3, 0, 0, 0, 0]"] ;
170 -> 171 ;
172 [label="residual sugar <= 1.25\ngini = 0.555\nsamples = 16\nvalue = [0, 0, 3, 10, 2, 1, 0]"] ;
170 -> 172 ;
173 [label="pH <= 3.035\ngini = 0.48\nsamples = 5\nvalue = [0, 0, 3, 2, 0, 0, 0]"] ;
172 -> 173 ;
174 [label="fixed acidity <= 6.95\ngini = 0.444\nsamples = 3\nvalue = [0, 0, 1, 2, 0, 0, 0]"] ;
173 -> 174 ;
175 [label="gini = 0.0\nsamples = 1\nvalue = [0, 0, 1, 0, 0, 0, 0]"] ;
174 -> 175 ;
176 [label="gini = 0.0\nsamples = 2\nvalue = [0, 0, 0, 2, 0, 0, 0]"] ;
174 -> 176 ;
177 [label="gini = 0.0\nsamples = 2\nvalue = [0, 0, 2, 0, 0, 0, 0]"] ;
173 -> 177 ;
178 [label="citric acid <= 0.285\ngini = 0.43\nsamples = 11\nvalue = [0, 0, 0, 8, 2, 1, 0]"] ;
172 -> 178 ;
179 [label="gini = 0.0\nsamples = 1\nvalue = [0, 0, 0, 0, 1, 0, 0]"] ;
178 -> 179 ;
180 [label="volatile acidity <= 0.135\ngini = 0.34\nsamples = 10\nvalue = [0, 0, 0, 8, 1, 1, 0]"] ;
178 -> 180 ;
181 [label="alcohol <= 9.45\ngini = 0.5\nsamples = 2\nvalue = [0, 0, 0, 1, 1, 0, 0]"] ;
180 -> 181 ;
182 [label="gini = 0.0\nsamples = 1\nvalue = [0, 0, 0, 1, 0, 0, 0]"] ;
181 -> 182 ;
183 [label="gini = 0.0\nsamples = 1\nvalue = [0, 0, 0, 0, 1, 0, 0]"] ;
181 -> 183 ;
184 [label="total sulfur dioxide <= 97.0\ngini = 0.219\nsamples = 8\nvalue = [0, 0, 0, 7, 0, 1, 0]"] ;
180 -> 184 ;
185 [label="citric acid <= 0.335\ngini = 0.5\nsamples = 2\nvalue = [0, 0, 0, 1, 0, 1, 0]"] ;
184 -> 185 ;
186 [label="gini = 0.0\nsamples = 1\nvalue = [0, 0, 0, 1, 0, 0, 0]"] ;
185 -> 186 ;
187 [label="gini = 0.0\nsamples = 1\nvalue = [0, 0, 0, 0, 0, 1, 0]"] ;
185 -> 187 ;
188 [label="gini = 0.0\nsamples = 6\nvalue = [0, 0, 0, 6, 0, 0, 0]"] ;
184 -> 188 ;
189 [label="fixed acidity <= 6.85\ngini = 0.586\nsamples = 18\nvalue = [0, 0, 2, 9, 7, 0, 0]"] ;
157 -> 189 ;
190 [label="pH <= 3.325\ngini = 0.595\nsamples = 11\nvalue = [0, 0, 2, 3, 6, 0, 0]"] ;
189 -> 190 ;
191 [label="gini = 0.0\nsamples = 2\nvalue = [0, 0, 2, 0, 0, 0, 0]"] ;
190 -> 191 ;
192 [label="volatile acidity <= 0.165\ngini = 0.444\nsamples = 9\nvalue = [0, 0, 0, 3, 6, 0, 0]"] ;
190 -> 192 ;
193 [label="gini = 0.0\nsamples = 5\nvalue = [0, 0, 0, 0, 5, 0, 0]"] ;
192 -> 193 ;
194 [label="free sulfur dioxide <= 40.0\ngini = 0.375\nsamples = 4\nvalue = [0, 0, 0, 3, 1, 0, 0]"] ;
192 -> 194 ;
195 [label="gini = 0.0\nsamples = 3\nvalue = [0, 0, 0, 3, 0, 0, 0]"] ;
194 -> 195 ;
196 [label="gini = 0.0\nsamples = 1\nvalue = [0, 0, 0, 0, 1, 0, 0]"] ;
194 -> 196 ;
197 [label="pH <= 3.305\ngini = 0.245\nsamples = 7\nvalue = [0, 0, 0, 6, 1, 0, 0]"] ;
189 -> 197 ;
198 [label="gini = 0.0\nsamples = 1\nvalue = [0, 0, 0, 0, 1, 0, 0]"] ;
197 -> 198 ;
199 [label="gini = 0.0\nsamples = 6\nvalue = [0, 0, 0, 6, 0, 0, 0]"] ;
197 -> 199 ;
200 [label="volatile acidity <= 0.21\ngini = 0.64\nsamples = 5\nvalue = [0, 2, 2, 0, 1, 0, 0]"] ;
156 -> 200 ;
201 [label="gini = 0.0\nsamples = 2\nvalue = [0, 2, 0, 0, 0, 0, 0]"] ;
200 -> 201 ;
202 [label="fixed acidity <= 8.55\ngini = 0.444\nsamples = 3\nvalue = [0, 0, 2, 0, 1, 0, 0]"] ;
200 -> 202 ;
203 [label="gini = 0.0\nsamples = 1\nvalue = [0, 0, 0, 0, 1, 0, 0]"] ;
202 -> 203 ;
204 [label="gini = 0.0\nsamples = 2\nvalue = [0, 0, 2, 0, 0, 0, 0]"] ;
202 -> 204 ;
205 [label="total sulfur dioxide <= 127.5\ngini = 0.605\nsamples = 202\nvalue = [1, 4, 67, 105, 24, 1, 0]"] ;
155 -> 205 ;
206 [label="fixed acidity <= 5.95\ngini = 0.398\nsamples = 16\nvalue = [0, 0, 12, 3, 1, 0, 0]"] ;
205 -> 206 ;
207 [label="gini = 0.0\nsamples = 2\nvalue = [0, 0, 0, 2, 0, 0, 0]"] ;
206 -> 207 ;
208 [label="alcohol <= 10.65\ngini = 0.255\nsamples = 14\nvalue = [0, 0, 12, 1, 1, 0, 0]"] ;
206 -> 208 ;
209 [label="residual sugar <= 4.6\ngini = 0.142\nsamples = 13\nvalue = [0, 0, 12, 1, 0, 0, 0]"] ;
208 -> 209 ;
210 [label="volatile acidity <= 0.185\ngini = 0.5\nsamples = 2\nvalue = [0, 0, 1, 1, 0, 0, 0]"] ;
209 -> 210 ;
211 [label="gini = 0.0\nsamples = 1\nvalue = [0, 0, 1, 0, 0, 0, 0]"] ;
210 -> 211 ;
212 [label="gini = 0.0\nsamples = 1\nvalue = [0, 0, 0, 1, 0, 0, 0]"] ;
210 -> 212 ;
213 [label="gini = 0.0\nsamples = 11\nvalue = [0, 0, 11, 0, 0, 0, 0]"] ;
209 -> 213 ;
214 [label="gini = 0.0\nsamples = 1\nvalue = [0, 0, 0, 0, 1, 0, 0]"] ;
208 -> 214 ;
215 [label="residual sugar <= 14.55\ngini = 0.596\nsamples = 186\nvalue = [1, 4, 55, 102, 23, 1, 0]"] ;
205 -> 215 ;
216 [label="fixed acidity <= 6.55\ngini = 0.55\nsamples = 160\nvalue = [1, 3, 46, 96, 13, 1, 0]"] ;
215 -> 216 ;
217 [label="alcohol <= 9.767\ngini = 0.577\nsamples = 60\nvalue = [1, 1, 26, 29, 2, 1, 0]"] ;
216 -> 217 ;
218 [label="residual sugar <= 10.35\ngini = 0.503\nsamples = 28\nvalue = [0, 1, 17, 10, 0, 0, 0]"] ;
217 -> 218 ;
219 [label="free sulfur dioxide <= 37.0\ngini = 0.231\nsamples = 15\nvalue = [0, 0, 13, 2, 0, 0, 0]"] ;
218 -> 219 ;
220 [label="gini = 0.0\nsamples = 2\nvalue = [0, 0, 0, 2, 0, 0, 0]"] ;
219 -> 220 ;
221 [label="gini = 0.0\nsamples = 13\nvalue = [0, 0, 13, 0, 0, 0, 0]"] ;
219 -> 221 ;
222 [label="chlorides <= 0.049\ngini = 0.521\nsamples = 13\nvalue = [0, 1, 4, 8, 0, 0, 0]"] ;
218 -> 222 ;
223 [label="gini = 0.0\nsamples = 5\nvalue = [0, 0, 0, 5, 0, 0, 0]"] ;
222 -> 223 ;
224 [label="residual sugar <= 12.65\ngini = 0.594\nsamples = 8\nvalue = [0, 1, 4, 3, 0, 0, 0]"] ;
222 -> 224 ;
225 [label="volatile acidity <= 0.215\ngini = 0.56\nsamples = 5\nvalue = [0, 1, 1, 3, 0, 0, 0]"] ;
224 -> 225 ;
226 [label="residual sugar <= 11.35\ngini = 0.5\nsamples = 2\nvalue = [0, 1, 1, 0, 0, 0, 0]"] ;
225 -> 226 ;
227 [label="gini = 0.0\nsamples = 1\nvalue = [0, 1, 0, 0, 0, 0, 0]"] ;
226 -> 227 ;
228 [label="gini = 0.0\nsamples = 1\nvalue = [0, 0, 1, 0, 0, 0, 0]"] ;
226 -> 228 ;
229 [label="gini = 0.0\nsamples = 3\nvalue = [0, 0, 0, 3, 0, 0, 0]"] ;
225 -> 229 ;
230 [label="gini = 0.0\nsamples = 3\nvalue = [0, 0, 3, 0, 0, 0, 0]"] ;
224 -> 230 ;
231 [label="chlorides <= 0.05\ngini = 0.562\nsamples = 32\nvalue = [1, 0, 9, 19, 2, 1, 0]"] ;
217 -> 231 ;
232 [label="residual sugar <= 6.55\ngini = 0.639\nsamples = 24\nvalue = [1, 0, 9, 11, 2, 1, 0]"] ;
231 -> 232 ;
233 [label="residual sugar <= 5.4\ngini = 0.461\nsamples = 16\nvalue = [0, 0, 4, 11, 1, 0, 0]"] ;
232 -> 233 ;
234 [label="total sulfur dioxide <= 159.0\ngini = 0.49\nsamples = 7\nvalue = [0, 0, 4, 3, 0, 0, 0]"] ;
233 -> 234 ;
235 [label="gini = 0.0\nsamples = 4\nvalue = [0, 0, 4, 0, 0, 0, 0]"] ;
234 -> 235 ;
236 [label="gini = 0.0\nsamples = 3\nvalue = [0, 0, 0, 3, 0, 0, 0]"] ;
234 -> 236 ;
237 [label="free sulfur dioxide <= 54.5\ngini = 0.198\nsamples = 9\nvalue = [0, 0, 0, 8, 1, 0, 0]"] ;
233 -> 237 ;
238 [label="gini = 0.0\nsamples = 8\nvalue = [0, 0, 0, 8, 0, 0, 0]"] ;
237 -> 238 ;
239 [label="gini = 0.0\nsamples = 1\nvalue = [0, 0, 0, 0, 1, 0, 0]"] ;
237 -> 239 ;
240 [label="citric acid <= 0.325\ngini = 0.562\nsamples = 8\nvalue = [1, 0, 5, 0, 1, 1, 0]"] ;
232 -> 240 ;
241 [label="gini = 0.0\nsamples = 5\nvalue = [0, 0, 5, 0, 0, 0, 0]"] ;
240 -> 241 ;
242 [label="residual sugar <= 9.85\ngini = 0.667\nsamples = 3\nvalue = [1, 0, 0, 0, 1, 1, 0]"] ;
240 -> 242 ;
243 [label="gini = 0.0\nsamples = 1\nvalue = [1, 0, 0, 0, 0, 0, 0]"] ;
242 -> 243 ;
244 [label="free sulfur dioxide <= 63.5\ngini = 0.5\nsamples = 2\nvalue = [0, 0, 0, 0, 1, 1, 0]"] ;
242 -> 244 ;
245 [label="gini = 0.0\nsamples = 1\nvalue = [0, 0, 0, 0, 0, 1, 0]"] ;
244 -> 245 ;
246 [label="gini = 0.0\nsamples = 1\nvalue = [0, 0, 0, 0, 1, 0, 0]"] ;
244 -> 246 ;
247 [label="gini = 0.0\nsamples = 8\nvalue = [0, 0, 0, 8, 0, 0, 0]"] ;
231 -> 247 ;
248 [label="citric acid <= 0.655\ngini = 0.499\nsamples = 100\nvalue = [0, 2, 20, 67, 11, 0, 0]"] ;
216 -> 248 ;
249 [label="pH <= 3.025\ngini = 0.479\nsamples = 97\nvalue = [0, 2, 17, 67, 11, 0, 0]"] ;
248 -> 249 ;
250 [label="gini = 0.0\nsamples = 17\nvalue = [0, 0, 0, 17, 0, 0, 0]"] ;
249 -> 250 ;
251 [label="alcohol <= 10.4\ngini = 0.545\nsamples = 80\nvalue = [0, 2, 17, 50, 11, 0, 0]"] ;
249 -> 251 ;
252 [label="sulphates <= 0.415\ngini = 0.508\nsamples = 69\nvalue = [0, 2, 17, 45, 5, 0, 0]"] ;
251 -> 252 ;
253 [label="density <= 0.993\ngini = 0.585\nsamples = 29\nvalue = [0, 0, 12, 14, 3, 0, 0]"] ;
252 -> 253 ;
254 [label="total sulfur dioxide <= 146.0\ngini = 0.375\nsamples = 4\nvalue = [0, 0, 1, 0, 3, 0, 0]"] ;
253 -> 254 ;
255 [label="gini = 0.0\nsamples = 3\nvalue = [0, 0, 0, 0, 3, 0, 0]"] ;
254 -> 255 ;
256 [label="gini = 0.0\nsamples = 1\nvalue = [0, 0, 1, 0, 0, 0, 0]"] ;
254 -> 256 ;
257 [label="density <= 0.997\ngini = 0.493\nsamples = 25\nvalue = [0, 0, 11, 14, 0, 0, 0]"] ;
253 -> 257 ;
258 [label="pH <= 3.105\ngini = 0.455\nsamples = 20\nvalue = [0, 0, 7, 13, 0, 0, 0]"] ;
257 -> 258 ;
259 [label="total sulfur dioxide <= 166.0\ngini = 0.444\nsamples = 6\nvalue = [0, 0, 4, 2, 0, 0, 0]"] ;
258 -> 259 ;
260 [label="fixed acidity <= 6.7\ngini = 0.444\nsamples = 3\nvalue = [0, 0, 1, 2, 0, 0, 0]"] ;
259 -> 260 ;
261 [label="gini = 0.0\nsamples = 1\nvalue = [0, 0, 1, 0, 0, 0, 0]"] ;
260 -> 261 ;
262 [label="gini = 0.0\nsamples = 2\nvalue = [0, 0, 0, 2, 0, 0, 0]"] ;
260 -> 262 ;
263 [label="gini = 0.0\nsamples = 3\nvalue = [0, 0, 3, 0, 0, 0, 0]"] ;
259 -> 263 ;
264 [label="pH <= 3.23\ngini = 0.337\nsamples = 14\nvalue = [0, 0, 3, 11, 0, 0, 0]"] ;
258 -> 264 ;
265 [label="gini = 0.0\nsamples = 9\nvalue = [0, 0, 0, 9, 0, 0, 0]"] ;
264 -> 265 ;
266 [label="citric acid <= 0.325\ngini = 0.48\nsamples = 5\nvalue = [0, 0, 3, 2, 0, 0, 0]"] ;
264 -> 266 ;
267 [label="gini = 0.0\nsamples = 3\nvalue = [0, 0, 3, 0, 0, 0, 0]"] ;
266 -> 267 ;
268 [label="gini = 0.0\nsamples = 2\nvalue = [0, 0, 0, 2, 0, 0, 0]"] ;
266 -> 268 ;
269 [label="alcohol <= 9.4\ngini = 0.32\nsamples = 5\nvalue = [0, 0, 4, 1, 0, 0, 0]"] ;
257 -> 269 ;
270 [label="gini = 0.0\nsamples = 1\nvalue = [0, 0, 0, 1, 0, 0, 0]"] ;
269 -> 270 ;
271 [label="gini = 0.0\nsamples = 4\nvalue = [0, 0, 4, 0, 0, 0, 0]"] ;
269 -> 271 ;
272 [label="fixed acidity <= 9.15\ngini = 0.379\nsamples = 40\nvalue = [0, 2, 5, 31, 2, 0, 0]"] ;
252 -> 272 ;
273 [label="total sulfur dioxide <= 209.5\ngini = 0.32\nsamples = 38\nvalue = [0, 1, 4, 31, 2, 0, 0]"] ;
272 -> 273 ;
274 [label="total sulfur dioxide <= 174.5\ngini = 0.285\nsamples = 37\nvalue = [0, 1, 4, 31, 1, 0, 0]"] ;
273 -> 274 ;
275 [label="alcohol <= 9.15\ngini = 0.449\nsamples = 21\nvalue = [0, 1, 4, 15, 1, 0, 0]"] ;
274 -> 275 ;
276 [label="chlorides <= 0.046\ngini = 0.5\nsamples = 2\nvalue = [0, 1, 1, 0, 0, 0, 0]"] ;
275 -> 276 ;
277 [label="gini = 0.0\nsamples = 1\nvalue = [0, 1, 0, 0, 0, 0, 0]"] ;
276 -> 277 ;
278 [label="gini = 0.0\nsamples = 1\nvalue = [0, 0, 1, 0, 0, 0, 0]"] ;
276 -> 278 ;
279 [label="chlorides <= 0.073\ngini = 0.349\nsamples = 19\nvalue = [0, 0, 3, 15, 1, 0, 0]"] ;
275 -> 279 ;
280 [label="sulphates <= 0.455\ngini = 0.29\nsamples = 18\nvalue = [0, 0, 2, 15, 1, 0, 0]"] ;
279 -> 280 ;
281 [label="chlorides <= 0.04\ngini = 0.153\nsamples = 12\nvalue = [0, 0, 0, 11, 1, 0, 0]"] ;
280 -> 281 ;
282 [label="total sulfur dioxide <= 157.5\ngini = 0.444\nsamples = 3\nvalue = [0, 0, 0, 2, 1, 0, 0]"] ;
281 -> 282 ;
283 [label="gini = 0.0\nsamples = 2\nvalue = [0, 0, 0, 2, 0, 0, 0]"] ;
282 -> 283 ;
284 [label="gini = 0.0\nsamples = 1\nvalue = [0, 0, 0, 0, 1, 0, 0]"] ;
282 -> 284 ;
285 [label="gini = 0.0\nsamples = 9\nvalue = [0, 0, 0, 9, 0, 0, 0]"] ;
281 -> 285 ;
286 [label="chlorides <= 0.05\ngini = 0.444\nsamples = 6\nvalue = [0, 0, 2, 4, 0, 0, 0]"] ;
280 -> 286 ;
287 [label="gini = 0.0\nsamples = 4\nvalue = [0, 0, 0, 4, 0, 0, 0]"] ;
286 -> 287 ;
288 [label="gini = 0.0\nsamples = 2\nvalue = [0, 0, 2, 0, 0, 0, 0]"] ;
286 -> 288 ;
289 [label="gini = 0.0\nsamples = 1\nvalue = [0, 0, 1, 0, 0, 0, 0]"] ;
279 -> 289 ;
290 [label="gini = 0.0\nsamples = 16\nvalue = [0, 0, 0, 16, 0, 0, 0]"] ;
274 -> 290 ;
291 [label="gini = 0.0\nsamples = 1\nvalue = [0, 0, 0, 0, 1, 0, 0]"] ;
273 -> 291 ;
292 [label="alcohol <= 9.05\ngini = 0.5\nsamples = 2\nvalue = [0, 1, 1, 0, 0, 0, 0]"] ;
272 -> 292 ;
293 [label="gini = 0.0\nsamples = 1\nvalue = [0, 1, 0, 0, 0, 0, 0]"] ;
292 -> 293 ;
294 [label="gini = 0.0\nsamples = 1\nvalue = [0, 0, 1, 0, 0, 0, 0]"] ;
292 -> 294 ;
295 [label="chlorides <= 0.04\ngini = 0.496\nsamples = 11\nvalue = [0, 0, 0, 5, 6, 0, 0]"] ;
251 -> 295 ;
296 [label="gini = 0.0\nsamples = 5\nvalue = [0, 0, 0, 0, 5, 0, 0]"] ;
295 -> 296 ;
297 [label="total sulfur dioxide <= 159.5\ngini = 0.278\nsamples = 6\nvalue = [0, 0, 0, 5, 1, 0, 0]"] ;
295 -> 297 ;
298 [label="gini = 0.0\nsamples = 5\nvalue = [0, 0, 0, 5, 0, 0, 0]"] ;
297 -> 298 ;
299 [label="gini = 0.0\nsamples = 1\nvalue = [0, 0, 0, 0, 1, 0, 0]"] ;
297 -> 299 ;
300 [label="gini = 0.0\nsamples = 3\nvalue = [0, 0, 3, 0, 0, 0, 0]"] ;
248 -> 300 ;
301 [label="alcohol <= 9.15\ngini = 0.678\nsamples = 26\nvalue = [0, 1, 9, 6, 10, 0, 0]"] ;
215 -> 301 ;
302 [label="total sulfur dioxide <= 151.0\ngini = 0.439\nsamples = 14\nvalue = [0, 0, 1, 3, 10, 0, 0]"] ;
301 -> 302 ;
303 [label="gini = 0.0\nsamples = 10\nvalue = [0, 0, 0, 0, 10, 0, 0]"] ;
302 -> 303 ;
304 [label="chlorides <= 0.056\ngini = 0.375\nsamples = 4\nvalue = [0, 0, 1, 3, 0, 0, 0]"] ;
302 -> 304 ;
305 [label="gini = 0.0\nsamples = 3\nvalue = [0, 0, 0, 3, 0, 0, 0]"] ;
304 -> 305 ;
306 [label="gini = 0.0\nsamples = 1\nvalue = [0, 0, 1, 0, 0, 0, 0]"] ;
304 -> 306 ;
307 [label="total sulfur dioxide <= 188.5\ngini = 0.486\nsamples = 12\nvalue = [0, 1, 8, 3, 0, 0, 0]"] ;
301 -> 307 ;
308 [label="chlorides <= 0.063\ngini = 0.34\nsamples = 10\nvalue = [0, 1, 8, 1, 0, 0, 0]"] ;
307 -> 308 ;
309 [label="sulphates <= 0.375\ngini = 0.198\nsamples = 9\nvalue = [0, 0, 8, 1, 0, 0, 0]"] ;
308 -> 309 ;
310 [label="gini = 0.0\nsamples = 1\nvalue = [0, 0, 0, 1, 0, 0, 0]"] ;
309 -> 310 ;
311 [label="gini = 0.0\nsamples = 8\nvalue = [0, 0, 8, 0, 0, 0, 0]"] ;
309 -> 311 ;
312 [label="gini = 0.0\nsamples = 1\nvalue = [0, 1, 0, 0, 0, 0, 0]"] ;
308 -> 312 ;
313 [label="gini = 0.0\nsamples = 2\nvalue = [0, 0, 0, 2, 0, 0, 0]"] ;
307 -> 313 ;
314 [label="sulphates <= 0.41\ngini = 0.408\nsamples = 7\nvalue = [0, 0, 0, 2, 0, 5, 0]"] ;
154 -> 314 ;
315 [label="gini = 0.0\nsamples = 2\nvalue = [0, 0, 0, 2, 0, 0, 0]"] ;
314 -> 315 ;
316 [label="gini = 0.0\nsamples = 5\nvalue = [0, 0, 0, 0, 0, 5, 0]"] ;
314 -> 316 ;
317 [label="density <= 0.994\ngini = 0.515\nsamples = 318\nvalue = [0, 3, 44, 208, 62, 1, 0]"] ;
153 -> 317 ;
318 [label="sulphates <= 0.515\ngini = 0.593\nsamples = 93\nvalue = [0, 1, 11, 50, 30, 1, 0]"] ;
317 -> 318 ;
319 [label="density <= 0.992\ngini = 0.435\nsamples = 29\nvalue = [0, 0, 5, 21, 3, 0, 0]"] ;
318 -> 319 ;
320 [label="chlorides <= 0.035\ngini = 0.469\nsamples = 8\nvalue = [0, 0, 5, 3, 0, 0, 0]"] ;
319 -> 320 ;
321 [label="gini = 0.0\nsamples = 3\nvalue = [0, 0, 0, 3, 0, 0, 0]"] ;
320 -> 321 ;
322 [label="gini = 0.0\nsamples = 5\nvalue = [0, 0, 5, 0, 0, 0, 0]"] ;
320 -> 322 ;
323 [label="total sulfur dioxide <= 92.5\ngini = 0.245\nsamples = 21\nvalue = [0, 0, 0, 18, 3, 0, 0]"] ;
319 -> 323 ;
324 [label="gini = 0.0\nsamples = 1\nvalue = [0, 0, 0, 0, 1, 0, 0]"] ;
323 -> 324 ;
325 [label="chlorides <= 0.078\ngini = 0.18\nsamples = 20\nvalue = [0, 0, 0, 18, 2, 0, 0]"] ;
323 -> 325 ;
326 [label="free sulfur dioxide <= 31.5\ngini = 0.105\nsamples = 18\nvalue = [0, 0, 0, 17, 1, 0, 0]"] ;
325 -> 326 ;
327 [label="total sulfur dioxide <= 117.5\ngini = 0.444\nsamples = 3\nvalue = [0, 0, 0, 2, 1, 0, 0]"] ;
326 -> 327 ;
328 [label="gini = 0.0\nsamples = 2\nvalue = [0, 0, 0, 2, 0, 0, 0]"] ;
327 -> 328 ;
329 [label="gini = 0.0\nsamples = 1\nvalue = [0, 0, 0, 0, 1, 0, 0]"] ;
327 -> 329 ;
330 [label="gini = 0.0\nsamples = 15\nvalue = [0, 0, 0, 15, 0, 0, 0]"] ;
326 -> 330 ;
331 [label="chlorides <= 0.092\ngini = 0.5\nsamples = 2\nvalue = [0, 0, 0, 1, 1, 0, 0]"] ;
325 -> 331 ;
332 [label="gini = 0.0\nsamples = 1\nvalue = [0, 0, 0, 0, 1, 0, 0]"] ;
331 -> 332 ;
333 [label="gini = 0.0\nsamples = 1\nvalue = [0, 0, 0, 1, 0, 0, 0]"] ;
331 -> 333 ;
334 [label="total sulfur dioxide <= 164.5\ngini = 0.607\nsamples = 64\nvalue = [0, 1, 6, 29, 27, 1, 0]"] ;
318 -> 334 ;
335 [label="fixed acidity <= 5.95\ngini = 0.608\nsamples = 58\nvalue = [0, 1, 6, 29, 21, 1, 0]"] ;
334 -> 335 ;
336 [label="volatile acidity <= 0.18\ngini = 0.346\nsamples = 9\nvalue = [0, 0, 2, 7, 0, 0, 0]"] ;
335 -> 336 ;
337 [label="gini = 0.0\nsamples = 6\nvalue = [0, 0, 0, 6, 0, 0, 0]"] ;
336 -> 337 ;
338 [label="chlorides <= 0.041\ngini = 0.444\nsamples = 3\nvalue = [0, 0, 2, 1, 0, 0, 0]"] ;
336 -> 338 ;
339 [label="gini = 0.0\nsamples = 1\nvalue = [0, 0, 0, 1, 0, 0, 0]"] ;
338 -> 339 ;
340 [label="gini = 0.0\nsamples = 2\nvalue = [0, 0, 2, 0, 0, 0, 0]"] ;
338 -> 340 ;
341 [label="total sulfur dioxide <= 141.5\ngini = 0.607\nsamples = 49\nvalue = [0, 1, 4, 22, 21, 1, 0]"] ;
335 -> 341 ;
342 [label="total sulfur dioxide <= 138.0\ngini = 0.583\nsamples = 38\nvalue = [0, 1, 2, 14, 20, 1, 0]"] ;
341 -> 342 ;
343 [label="sulphates <= 0.715\ngini = 0.611\nsamples = 32\nvalue = [0, 1, 2, 14, 14, 1, 0]"] ;
342 -> 343 ;
344 [label="alcohol <= 10.05\ngini = 0.615\nsamples = 28\nvalue = [0, 1, 2, 10, 14, 1, 0]"] ;
343 -> 344 ;
345 [label="volatile acidity <= 0.2\ngini = 0.32\nsamples = 5\nvalue = [0, 0, 1, 4, 0, 0, 0]"] ;
344 -> 345 ;
346 [label="gini = 0.0\nsamples = 4\nvalue = [0, 0, 0, 4, 0, 0, 0]"] ;
345 -> 346 ;
347 [label="gini = 0.0\nsamples = 1\nvalue = [0, 0, 1, 0, 0, 0, 0]"] ;
345 -> 347 ;
348 [label="volatile acidity <= 0.195\ngini = 0.556\nsamples = 23\nvalue = [0, 1, 1, 6, 14, 1, 0]"] ;
344 -> 348 ;
349 [label="free sulfur dioxide <= 27.5\ngini = 0.245\nsamples = 14\nvalue = [0, 0, 0, 2, 12, 0, 0]"] ;
348 -> 349 ;
350 [label="pH <= 3.065\ngini = 0.444\nsamples = 3\nvalue = [0, 0, 0, 2, 1, 0, 0]"] ;
349 -> 350 ;
351 [label="gini = 0.0\nsamples = 1\nvalue = [0, 0, 0, 0, 1, 0, 0]"] ;
350 -> 351 ;
352 [label="gini = 0.0\nsamples = 2\nvalue = [0, 0, 0, 2, 0, 0, 0]"] ;
350 -> 352 ;
353 [label="gini = 0.0\nsamples = 11\nvalue = [0, 0, 0, 0, 11, 0, 0]"] ;
349 -> 353 ;
354 [label="chlorides <= 0.038\ngini = 0.716\nsamples = 9\nvalue = [0, 1, 1, 4, 2, 1, 0]"] ;
348 -> 354 ;
355 [label="fixed acidity <= 7.25\ngini = 0.32\nsamples = 5\nvalue = [0, 0, 1, 4, 0, 0, 0]"] ;
354 -> 355 ;
356 [label="gini = 0.0\nsamples = 4\nvalue = [0, 0, 0, 4, 0, 0, 0]"] ;
355 -> 356 ;
357 [label="gini = 0.0\nsamples = 1\nvalue = [0, 0, 1, 0, 0, 0, 0]"] ;
355 -> 357 ;
358 [label="sulphates <= 0.57\ngini = 0.625\nsamples = 4\nvalue = [0, 1, 0, 0, 2, 1, 0]"] ;
354 -> 358 ;
359 [label="gini = 0.0\nsamples = 2\nvalue = [0, 0, 0, 0, 2, 0, 0]"] ;
358 -> 359 ;
360 [label="free sulfur dioxide <= 27.5\ngini = 0.5\nsamples = 2\nvalue = [0, 1, 0, 0, 0, 1, 0]"] ;
358 -> 360 ;
361 [label="gini = 0.0\nsamples = 1\nvalue = [0, 1, 0, 0, 0, 0, 0]"] ;
360 -> 361 ;
362 [label="gini = 0.0\nsamples = 1\nvalue = [0, 0, 0, 0, 0, 1, 0]"] ;
360 -> 362 ;
363 [label="gini = 0.0\nsamples = 4\nvalue = [0, 0, 0, 4, 0, 0, 0]"] ;
343 -> 363 ;
364 [label="gini = 0.0\nsamples = 6\nvalue = [0, 0, 0, 0, 6, 0, 0]"] ;
342 -> 364 ;
365 [label="alcohol <= 10.45\ngini = 0.43\nsamples = 11\nvalue = [0, 0, 2, 8, 1, 0, 0]"] ;
341 -> 365 ;
366 [label="density <= 0.994\ngini = 0.198\nsamples = 9\nvalue = [0, 0, 1, 8, 0, 0, 0]"] ;
365 -> 366 ;
367 [label="gini = 0.0\nsamples = 8\nvalue = [0, 0, 0, 8, 0, 0, 0]"] ;
366 -> 367 ;
368 [label="gini = 0.0\nsamples = 1\nvalue = [0, 0, 1, 0, 0, 0, 0]"] ;
366 -> 368 ;
369 [label="density <= 0.993\ngini = 0.5\nsamples = 2\nvalue = [0, 0, 1, 0, 1, 0, 0]"] ;
365 -> 369 ;
370 [label="gini = 0.0\nsamples = 1\nvalue = [0, 0, 1, 0, 0, 0, 0]"] ;
369 -> 370 ;
371 [label="gini = 0.0\nsamples = 1\nvalue = [0, 0, 0, 0, 1, 0, 0]"] ;
369 -> 371 ;
372 [label="gini = 0.0\nsamples = 6\nvalue = [0, 0, 0, 0, 6, 0, 0]"] ;
334 -> 372 ;
373 [label="citric acid <= 0.195\ngini = 0.465\nsamples = 225\nvalue = [0, 2, 33, 158, 32, 0, 0]"] ;
317 -> 373 ;
374 [label="citric acid <= 0.165\ngini = 0.278\nsamples = 6\nvalue = [0, 0, 5, 1, 0, 0, 0]"] ;
373 -> 374 ;
375 [label="gini = 0.0\nsamples = 1\nvalue = [0, 0, 0, 1, 0, 0, 0]"] ;
374 -> 375 ;
376 [label="gini = 0.0\nsamples = 5\nvalue = [0, 0, 5, 0, 0, 0, 0]"] ;
374 -> 376 ;
377 [label="density <= 0.997\ngini = 0.448\nsamples = 219\nvalue = [0, 2, 28, 157, 32, 0, 0]"] ;
373 -> 377 ;
378 [label="citric acid <= 0.305\ngini = 0.33\nsamples = 120\nvalue = [0, 2, 13, 97, 8, 0, 0]"] ;
377 -> 378 ;
379 [label="pH <= 2.955\ngini = 0.458\nsamples = 50\nvalue = [0, 2, 11, 35, 2, 0, 0]"] ;
378 -> 379 ;
380 [label="gini = 0.0\nsamples = 3\nvalue = [0, 0, 3, 0, 0, 0, 0]"] ;
379 -> 380 ;
381 [label="total sulfur dioxide <= 246.5\ngini = 0.413\nsamples = 47\nvalue = [0, 2, 8, 35, 2, 0, 0]"] ;
379 -> 381 ;
382 [label="chlorides <= 0.039\ngini = 0.373\nsamples = 45\nvalue = [0, 2, 6, 35, 2, 0, 0]"] ;
381 -> 382 ;
383 [label="residual sugar <= 11.725\ngini = 0.722\nsamples = 6\nvalue = [0, 1, 1, 2, 2, 0, 0]"] ;
382 -> 383 ;
384 [label="density <= 0.995\ngini = 0.625\nsamples = 4\nvalue = [0, 1, 1, 0, 2, 0, 0]"] ;
383 -> 384 ;
385 [label="residual sugar <= 5.25\ngini = 0.5\nsamples = 2\nvalue = [0, 1, 1, 0, 0, 0, 0]"] ;
384 -> 385 ;
386 [label="gini = 0.0\nsamples = 1\nvalue = [0, 0, 1, 0, 0, 0, 0]"] ;
385 -> 386 ;
387 [label="gini = 0.0\nsamples = 1\nvalue = [0, 1, 0, 0, 0, 0, 0]"] ;
385 -> 387 ;
388 [label="gini = 0.0\nsamples = 2\nvalue = [0, 0, 0, 0, 2, 0, 0]"] ;
384 -> 388 ;
389 [label="gini = 0.0\nsamples = 2\nvalue = [0, 0, 0, 2, 0, 0, 0]"] ;
383 -> 389 ;
390 [label="pH <= 3.685\ngini = 0.267\nsamples = 39\nvalue = [0, 1, 5, 33, 0, 0, 0]"] ;
382 -> 390 ;
391 [label="volatile acidity <= 0.215\ngini = 0.229\nsamples = 38\nvalue = [0, 0, 5, 33, 0, 0, 0]"] ;
390 -> 391 ;
392 [label="density <= 0.996\ngini = 0.071\nsamples = 27\nvalue = [0, 0, 1, 26, 0, 0, 0]"] ;
391 -> 392 ;
393 [label="gini = 0.0\nsamples = 24\nvalue = [0, 0, 0, 24, 0, 0, 0]"] ;
392 -> 393 ;
394 [label="total sulfur dioxide <= 199.0\ngini = 0.444\nsamples = 3\nvalue = [0, 0, 1, 2, 0, 0, 0]"] ;
392 -> 394 ;
395 [label="gini = 0.0\nsamples = 2\nvalue = [0, 0, 0, 2, 0, 0, 0]"] ;
394 -> 395 ;
396 [label="gini = 0.0\nsamples = 1\nvalue = [0, 0, 1, 0, 0, 0, 0]"] ;
394 -> 396 ;
397 [label="sulphates <= 0.5\ngini = 0.463\nsamples = 11\nvalue = [0, 0, 4, 7, 0, 0, 0]"] ;
391 -> 397 ;
398 [label="gini = 0.0\nsamples = 2\nvalue = [0, 0, 2, 0, 0, 0, 0]"] ;
397 -> 398 ;
399 [label="sulphates <= 0.755\ngini = 0.346\nsamples = 9\nvalue = [0, 0, 2, 7, 0, 0, 0]"] ;
397 -> 399 ;
400 [label="fixed acidity <= 8.05\ngini = 0.219\nsamples = 8\nvalue = [0, 0, 1, 7, 0, 0, 0]"] ;
399 -> 400 ;
401 [label="gini = 0.0\nsamples = 7\nvalue = [0, 0, 0, 7, 0, 0, 0]"] ;
400 -> 401 ;
402 [label="gini = 0.0\nsamples = 1\nvalue = [0, 0, 1, 0, 0, 0, 0]"] ;
400 -> 402 ;
403 [label="gini = 0.0\nsamples = 1\nvalue = [0, 0, 1, 0, 0, 0, 0]"] ;
399 -> 403 ;
404 [label="gini = 0.0\nsamples = 1\nvalue = [0, 1, 0, 0, 0, 0, 0]"] ;
390 -> 404 ;
405 [label="gini = 0.0\nsamples = 2\nvalue = [0, 0, 2, 0, 0, 0, 0]"] ;
381 -> 405 ;
406 [label="chlorides <= 0.065\ngini = 0.207\nsamples = 70\nvalue = [0, 0, 2, 62, 6, 0, 0]"] ;
378 -> 406 ;
407 [label="chlorides <= 0.035\ngini = 0.185\nsamples = 69\nvalue = [0, 0, 1, 62, 6, 0, 0]"] ;
406 -> 407 ;
408 [label="volatile acidity <= 0.195\ngini = 0.49\nsamples = 7\nvalue = [0, 0, 0, 4, 3, 0, 0]"] ;
407 -> 408 ;
409 [label="gini = 0.0\nsamples = 3\nvalue = [0, 0, 0, 0, 3, 0, 0]"] ;
408 -> 409 ;
410 [label="gini = 0.0\nsamples = 4\nvalue = [0, 0, 0, 4, 0, 0, 0]"] ;
408 -> 410 ;
411 [label="alcohol <= 9.05\ngini = 0.122\nsamples = 62\nvalue = [0, 0, 1, 58, 3, 0, 0]"] ;
407 -> 411 ;
412 [label="gini = 0.0\nsamples = 1\nvalue = [0, 0, 0, 0, 1, 0, 0]"] ;
411 -> 412 ;
413 [label="sulphates <= 0.715\ngini = 0.095\nsamples = 61\nvalue = [0, 0, 1, 58, 2, 0, 0]"] ;
411 -> 413 ;
414 [label="density <= 0.995\ngini = 0.037\nsamples = 53\nvalue = [0, 0, 1, 52, 0, 0, 0]"] ;
413 -> 414 ;
415 [label="chlorides <= 0.052\ngini = 0.198\nsamples = 9\nvalue = [0, 0, 1, 8, 0, 0, 0]"] ;
414 -> 415 ;
416 [label="gini = 0.0\nsamples = 8\nvalue = [0, 0, 0, 8, 0, 0, 0]"] ;
415 -> 416 ;
417 [label="gini = 0.0\nsamples = 1\nvalue = [0, 0, 1, 0, 0, 0, 0]"] ;
415 -> 417 ;
418 [label="gini = 0.0\nsamples = 44\nvalue = [0, 0, 0, 44, 0, 0, 0]"] ;
414 -> 418 ;
419 [label="volatile acidity <= 0.185\ngini = 0.375\nsamples = 8\nvalue = [0, 0, 0, 6, 2, 0, 0]"] ;
413 -> 419 ;
420 [label="gini = 0.0\nsamples = 6\nvalue = [0, 0, 0, 6, 0, 0, 0]"] ;
419 -> 420 ;
421 [label="gini = 0.0\nsamples = 2\nvalue = [0, 0, 0, 0, 2, 0, 0]"] ;
419 -> 421 ;
422 [label="gini = 0.0\nsamples = 1\nvalue = [0, 0, 1, 0, 0, 0, 0]"] ;
406 -> 422 ;
423 [label="density <= 0.997\ngini = 0.551\nsamples = 99\nvalue = [0, 0, 15, 60, 24, 0, 0]"] ;
377 -> 423 ;
424 [label="gini = 0.0\nsamples = 5\nvalue = [0, 0, 0, 0, 5, 0, 0]"] ;
423 -> 424 ;
425 [label="pH <= 2.985\ngini = 0.526\nsamples = 94\nvalue = [0, 0, 15, 60, 19, 0, 0]"] ;
423 -> 425 ;
426 [label="fixed acidity <= 7.3\ngini = 0.569\nsamples = 12\nvalue = [0, 0, 2, 3, 7, 0, 0]"] ;
425 -> 426 ;
427 [label="gini = 0.0\nsamples = 7\nvalue = [0, 0, 0, 0, 7, 0, 0]"] ;
426 -> 427 ;
428 [label="density <= 0.998\ngini = 0.48\nsamples = 5\nvalue = [0, 0, 2, 3, 0, 0, 0]"] ;
426 -> 428 ;
429 [label="gini = 0.0\nsamples = 2\nvalue = [0, 0, 2, 0, 0, 0, 0]"] ;
428 -> 429 ;
430 [label="gini = 0.0\nsamples = 3\nvalue = [0, 0, 0, 3, 0, 0, 0]"] ;
428 -> 430 ;
431 [label="total sulfur dioxide <= 202.0\ngini = 0.47\nsamples = 82\nvalue = [0, 0, 13, 57, 12, 0, 0]"] ;
425 -> 431 ;
432 [label="pH <= 3.53\ngini = 0.379\nsamples = 69\nvalue = [0, 0, 11, 53, 5, 0, 0]"] ;
431 -> 432 ;
433 [label="density <= 0.999\ngini = 0.335\nsamples = 66\nvalue = [0, 0, 8, 53, 5, 0, 0]"] ;
432 -> 433 ;
434 [label="residual sugar <= 10.3\ngini = 0.18\nsamples = 41\nvalue = [0, 0, 1, 37, 3, 0, 0]"] ;
433 -> 434 ;
435 [label="alcohol <= 10.1\ngini = 0.444\nsamples = 3\nvalue = [0, 0, 0, 1, 2, 0, 0]"] ;
434 -> 435 ;
436 [label="gini = 0.0\nsamples = 2\nvalue = [0, 0, 0, 0, 2, 0, 0]"] ;
435 -> 436 ;
437 [label="gini = 0.0\nsamples = 1\nvalue = [0, 0, 0, 1, 0, 0, 0]"] ;
435 -> 437 ;
438 [label="sulphates <= 0.805\ngini = 0.101\nsamples = 38\nvalue = [0, 0, 1, 36, 1, 0, 0]"] ;
434 -> 438 ;
439 [label="density <= 0.997\ngini = 0.053\nsamples = 37\nvalue = [0, 0, 1, 36, 0, 0, 0]"] ;
438 -> 439 ;
440 [label="citric acid <= 0.345\ngini = 0.278\nsamples = 6\nvalue = [0, 0, 1, 5, 0, 0, 0]"] ;
439 -> 440 ;
441 [label="gini = 0.0\nsamples = 5\nvalue = [0, 0, 0, 5, 0, 0, 0]"] ;
440 -> 441 ;
442 [label="gini = 0.0\nsamples = 1\nvalue = [0, 0, 1, 0, 0, 0, 0]"] ;
440 -> 442 ;
443 [label="gini = 0.0\nsamples = 31\nvalue = [0, 0, 0, 31, 0, 0, 0]"] ;
439 -> 443 ;
444 [label="gini = 0.0\nsamples = 1\nvalue = [0, 0, 0, 0, 1, 0, 0]"] ;
438 -> 444 ;
445 [label="alcohol <= 9.35\ngini = 0.506\nsamples = 25\nvalue = [0, 0, 7, 16, 2, 0, 0]"] ;
433 -> 445 ;
446 [label="chlorides <= 0.05\ngini = 0.266\nsamples = 19\nvalue = [0, 0, 3, 16, 0, 0, 0]"] ;
445 -> 446 ;
447 [label="gini = 0.0\nsamples = 10\nvalue = [0, 0, 0, 10, 0, 0, 0]"] ;
446 -> 447 ;
448 [label="sulphates <= 0.8\ngini = 0.444\nsamples = 9\nvalue = [0, 0, 3, 6, 0, 0, 0]"] ;
446 -> 448 ;
449 [label="fixed acidity <= 8.0\ngini = 0.375\nsamples = 4\nvalue = [0, 0, 3, 1, 0, 0, 0]"] ;
448 -> 449 ;
450 [label="gini = 0.0\nsamples = 3\nvalue = [0, 0, 3, 0, 0, 0, 0]"] ;
449 -> 450 ;
451 [label="gini = 0.0\nsamples = 1\nvalue = [0, 0, 0, 1, 0, 0, 0]"] ;
449 -> 451 ;
452 [label="gini = 0.0\nsamples = 5\nvalue = [0, 0, 0, 5, 0, 0, 0]"] ;
448 -> 452 ;
453 [label="density <= 0.999\ngini = 0.444\nsamples = 6\nvalue = [0, 0, 4, 0, 2, 0, 0]"] ;
445 -> 453 ;
454 [label="gini = 0.0\nsamples = 2\nvalue = [0, 0, 0, 0, 2, 0, 0]"] ;
453 -> 454 ;
455 [label="gini = 0.0\nsamples = 4\nvalue = [0, 0, 4, 0, 0, 0, 0]"] ;
453 -> 455 ;
456 [label="gini = 0.0\nsamples = 3\nvalue = [0, 0, 3, 0, 0, 0, 0]"] ;
432 -> 456 ;
457 [label="volatile acidity <= 0.195\ngini = 0.592\nsamples = 13\nvalue = [0, 0, 2, 4, 7, 0, 0]"] ;
431 -> 457 ;
458 [label="gini = 0.0\nsamples = 7\nvalue = [0, 0, 0, 0, 7, 0, 0]"] ;
457 -> 458 ;
459 [label="sulphates <= 0.74\ngini = 0.444\nsamples = 6\nvalue = [0, 0, 2, 4, 0, 0, 0]"] ;
457 -> 459 ;
460 [label="fixed acidity <= 8.85\ngini = 0.32\nsamples = 5\nvalue = [0, 0, 1, 4, 0, 0, 0]"] ;
459 -> 460 ;
461 [label="gini = 0.0\nsamples = 4\nvalue = [0, 0, 0, 4, 0, 0, 0]"] ;
460 -> 461 ;
462 [label="gini = 0.0\nsamples = 1\nvalue = [0, 0, 1, 0, 0, 0, 0]"] ;
460 -> 462 ;
463 [label="gini = 0.0\nsamples = 1\nvalue = [0, 0, 1, 0, 0, 0, 0]"] ;
459 -> 463 ;
464 [label="gini = 0.0\nsamples = 5\nvalue = [0, 0, 0, 0, 5, 0, 0]"] ;
152 -> 464 ;
465 [label="alcohol <= 9.517\ngini = 0.58\nsamples = 1472\nvalue = [7, 84, 789, 527, 58, 6, 1]"] ;
1 -> 465 ;
466 [label="volatile acidity <= 0.305\ngini = 0.515\nsamples = 778\nvalue = [3, 43, 491, 224, 17, 0, 0]"] ;
465 -> 466 ;
467 [label="citric acid <= 0.265\ngini = 0.545\nsamples = 393\nvalue = [1, 12, 221, 145, 14, 0, 0]"] ;
466 -> 467 ;
468 [label="residual sugar <= 8.5\ngini = 0.439\nsamples = 108\nvalue = [1, 6, 77, 24, 0, 0, 0]"] ;
467 -> 468 ;
469 [label="residual sugar <= 6.95\ngini = 0.329\nsamples = 63\nvalue = [1, 5, 51, 6, 0, 0, 0]"] ;
468 -> 469 ;
470 [label="free sulfur dioxide <= 25.0\ngini = 0.56\nsamples = 31\nvalue = [1, 5, 19, 6, 0, 0, 0]"] ;
469 -> 470 ;
471 [label="chlorides <= 0.057\ngini = 0.36\nsamples = 17\nvalue = [0, 4, 13, 0, 0, 0, 0]"] ;
470 -> 471 ;
472 [label="free sulfur dioxide <= 7.0\ngini = 0.142\nsamples = 13\nvalue = [0, 1, 12, 0, 0, 0, 0]"] ;
471 -> 472 ;
473 [label="gini = 0.0\nsamples = 1\nvalue = [0, 1, 0, 0, 0, 0, 0]"] ;
472 -> 473 ;
474 [label="gini = 0.0\nsamples = 12\nvalue = [0, 0, 12, 0, 0, 0, 0]"] ;
472 -> 474 ;
475 [label="sulphates <= 0.465\ngini = 0.375\nsamples = 4\nvalue = [0, 3, 1, 0, 0, 0, 0]"] ;
471 -> 475 ;
476 [label="gini = 0.0\nsamples = 1\nvalue = [0, 0, 1, 0, 0, 0, 0]"] ;
475 -> 476 ;
477 [label="gini = 0.0\nsamples = 3\nvalue = [0, 3, 0, 0, 0, 0, 0]"] ;
475 -> 477 ;
478 [label="chlorides <= 0.06\ngini = 0.622\nsamples = 14\nvalue = [1, 1, 6, 6, 0, 0, 0]"] ;
470 -> 478 ;
479 [label="fixed acidity <= 6.05\ngini = 0.54\nsamples = 10\nvalue = [1, 0, 3, 6, 0, 0, 0]"] ;
478 -> 479 ;
480 [label="gini = 0.0\nsamples = 2\nvalue = [0, 0, 2, 0, 0, 0, 0]"] ;
479 -> 480 ;
481 [label="total sulfur dioxide <= 213.5\ngini = 0.406\nsamples = 8\nvalue = [1, 0, 1, 6, 0, 0, 0]"] ;
479 -> 481 ;
482 [label="chlorides <= 0.041\ngini = 0.245\nsamples = 7\nvalue = [0, 0, 1, 6, 0, 0, 0]"] ;
481 -> 482 ;
483 [label="sulphates <= 0.425\ngini = 0.5\nsamples = 2\nvalue = [0, 0, 1, 1, 0, 0, 0]"] ;
482 -> 483 ;
484 [label="gini = 0.0\nsamples = 1\nvalue = [0, 0, 0, 1, 0, 0, 0]"] ;
483 -> 484 ;
485 [label="gini = 0.0\nsamples = 1\nvalue = [0, 0, 1, 0, 0, 0, 0]"] ;
483 -> 485 ;
486 [label="gini = 0.0\nsamples = 5\nvalue = [0, 0, 0, 5, 0, 0, 0]"] ;
482 -> 486 ;
487 [label="gini = 0.0\nsamples = 1\nvalue = [1, 0, 0, 0, 0, 0, 0]"] ;
481 -> 487 ;
488 [label="residual sugar <= 2.6\ngini = 0.375\nsamples = 4\nvalue = [0, 1, 3, 0, 0, 0, 0]"] ;
478 -> 488 ;
489 [label="gini = 0.0\nsamples = 1\nvalue = [0, 1, 0, 0, 0, 0, 0]"] ;
488 -> 489 ;
490 [label="gini = 0.0\nsamples = 3\nvalue = [0, 0, 3, 0, 0, 0, 0]"] ;
488 -> 490 ;
491 [label="gini = 0.0\nsamples = 32\nvalue = [0, 0, 32, 0, 0, 0, 0]"] ;
469 -> 491 ;
492 [label="citric acid <= 0.175\ngini = 0.506\nsamples = 45\nvalue = [0, 1, 26, 18, 0, 0, 0]"] ;
468 -> 492 ;
493 [label="gini = 0.0\nsamples = 4\nvalue = [0, 0, 0, 4, 0, 0, 0]"] ;
492 -> 493 ;
494 [label="pH <= 3.105\ngini = 0.481\nsamples = 41\nvalue = [0, 1, 26, 14, 0, 0, 0]"] ;
492 -> 494 ;
495 [label="free sulfur dioxide <= 38.5\ngini = 0.48\nsamples = 15\nvalue = [0, 0, 6, 9, 0, 0, 0]"] ;
494 -> 495 ;
496 [label="gini = 0.0\nsamples = 6\nvalue = [0, 0, 6, 0, 0, 0, 0]"] ;
495 -> 496 ;
497 [label="gini = 0.0\nsamples = 9\nvalue = [0, 0, 0, 9, 0, 0, 0]"] ;
495 -> 497 ;
498 [label="free sulfur dioxide <= 37.0\ngini = 0.37\nsamples = 26\nvalue = [0, 1, 20, 5, 0, 0, 0]"] ;
494 -> 498 ;
499 [label="pH <= 3.18\ngini = 0.569\nsamples = 12\nvalue = [0, 1, 6, 5, 0, 0, 0]"] ;
498 -> 499 ;
500 [label="gini = 0.0\nsamples = 6\nvalue = [0, 0, 6, 0, 0, 0, 0]"] ;
499 -> 500 ;
501 [label="total sulfur dioxide <= 181.5\ngini = 0.278\nsamples = 6\nvalue = [0, 1, 0, 5, 0, 0, 0]"] ;
499 -> 501 ;
502 [label="gini = 0.0\nsamples = 5\nvalue = [0, 0, 0, 5, 0, 0, 0]"] ;
501 -> 502 ;
503 [label="gini = 0.0\nsamples = 1\nvalue = [0, 1, 0, 0, 0, 0, 0]"] ;
501 -> 503 ;
504 [label="gini = 0.0\nsamples = 14\nvalue = [0, 0, 14, 0, 0, 0, 0]"] ;
498 -> 504 ;
505 [label="alcohol <= 8.75\ngini = 0.562\nsamples = 285\nvalue = [0, 6, 144, 121, 14, 0, 0]"] ;
467 -> 505 ;
506 [label="chlorides <= 0.068\ngini = 0.188\nsamples = 19\nvalue = [0, 0, 17, 2, 0, 0, 0]"] ;
505 -> 506 ;
507 [label="volatile acidity <= 0.285\ngini = 0.105\nsamples = 18\nvalue = [0, 0, 17, 1, 0, 0, 0]"] ;
506 -> 507 ;
508 [label="gini = 0.0\nsamples = 16\nvalue = [0, 0, 16, 0, 0, 0, 0]"] ;
507 -> 508 ;
509 [label="chlorides <= 0.041\ngini = 0.5\nsamples = 2\nvalue = [0, 0, 1, 1, 0, 0, 0]"] ;
507 -> 509 ;
510 [label="gini = 0.0\nsamples = 1\nvalue = [0, 0, 1, 0, 0, 0, 0]"] ;
509 -> 510 ;
511 [label="gini = 0.0\nsamples = 1\nvalue = [0, 0, 0, 1, 0, 0, 0]"] ;
509 -> 511 ;
512 [label="gini = 0.0\nsamples = 1\nvalue = [0, 0, 0, 1, 0, 0, 0]"] ;
506 -> 512 ;
513 [label="total sulfur dioxide <= 172.5\ngini = 0.569\nsamples = 266\nvalue = [0, 6, 127, 119, 14, 0, 0]"] ;
505 -> 513 ;
514 [label="free sulfur dioxide <= 21.5\ngini = 0.487\nsamples = 105\nvalue = [0, 1, 41, 63, 0, 0, 0]"] ;
513 -> 514 ;
515 [label="pH <= 3.25\ngini = 0.26\nsamples = 13\nvalue = [0, 0, 11, 2, 0, 0, 0]"] ;
514 -> 515 ;
516 [label="gini = 0.0\nsamples = 11\nvalue = [0, 0, 11, 0, 0, 0, 0]"] ;
515 -> 516 ;
517 [label="gini = 0.0\nsamples = 2\nvalue = [0, 0, 0, 2, 0, 0, 0]"] ;
515 -> 517 ;
518 [label="fixed acidity <= 8.75\ngini = 0.454\nsamples = 92\nvalue = [0, 1, 30, 61, 0, 0, 0]"] ;
514 -> 518 ;
519 [label="total sulfur dioxide <= 137.5\ngini = 0.432\nsamples = 88\nvalue = [0, 1, 26, 61, 0, 0, 0]"] ;
518 -> 519 ;
520 [label="residual sugar <= 1.05\ngini = 0.198\nsamples = 27\nvalue = [0, 0, 3, 24, 0, 0, 0]"] ;
519 -> 520 ;
521 [label="gini = 0.0\nsamples = 1\nvalue = [0, 0, 1, 0, 0, 0, 0]"] ;
520 -> 521 ;
522 [label="fixed acidity <= 7.9\ngini = 0.142\nsamples = 26\nvalue = [0, 0, 2, 24, 0, 0, 0]"] ;
520 -> 522 ;
523 [label="free sulfur dioxide <= 45.0\ngini = 0.077\nsamples = 25\nvalue = [0, 0, 1, 24, 0, 0, 0]"] ;
522 -> 523 ;
524 [label="gini = 0.0\nsamples = 21\nvalue = [0, 0, 0, 21, 0, 0, 0]"] ;
523 -> 524 ;
525 [label="fixed acidity <= 7.0\ngini = 0.375\nsamples = 4\nvalue = [0, 0, 1, 3, 0, 0, 0]"] ;
523 -> 525 ;
526 [label="gini = 0.0\nsamples = 3\nvalue = [0, 0, 0, 3, 0, 0, 0]"] ;
525 -> 526 ;
527 [label="gini = 0.0\nsamples = 1\nvalue = [0, 0, 1, 0, 0, 0, 0]"] ;
525 -> 527 ;
528 [label="gini = 0.0\nsamples = 1\nvalue = [0, 0, 1, 0, 0, 0, 0]"] ;
522 -> 528 ;
529 [label="chlorides <= 0.049\ngini = 0.49\nsamples = 61\nvalue = [0, 1, 23, 37, 0, 0, 0]"] ;
519 -> 529 ;
530 [label="volatile acidity <= 0.242\ngini = 0.355\nsamples = 39\nvalue = [0, 0, 9, 30, 0, 0, 0]"] ;
529 -> 530 ;
531 [label="gini = 0.0\nsamples = 3\nvalue = [0, 0, 3, 0, 0, 0, 0]"] ;
530 -> 531 ;
532 [label="residual sugar <= 16.6\ngini = 0.278\nsamples = 36\nvalue = [0, 0, 6, 30, 0, 0, 0]"] ;
530 -> 532 ;
533 [label="residual sugar <= 1.75\ngini = 0.071\nsamples = 27\nvalue = [0, 0, 1, 26, 0, 0, 0]"] ;
532 -> 533 ;
534 [label="total sulfur dioxide <= 151.0\ngini = 0.5\nsamples = 2\nvalue = [0, 0, 1, 1, 0, 0, 0]"] ;
533 -> 534 ;
535 [label="gini = 0.0\nsamples = 1\nvalue = [0, 0, 1, 0, 0, 0, 0]"] ;
534 -> 535 ;
536 [label="gini = 0.0\nsamples = 1\nvalue = [0, 0, 0, 1, 0, 0, 0]"] ;
534 -> 536 ;
537 [label="gini = 0.0\nsamples = 25\nvalue = [0, 0, 0, 25, 0, 0, 0]"] ;
533 -> 537 ;
538 [label="density <= 1.0\ngini = 0.494\nsamples = 9\nvalue = [0, 0, 5, 4, 0, 0, 0]"] ;
532 -> 538 ;
539 [label="gini = 0.0\nsamples = 4\nvalue = [0, 0, 4, 0, 0, 0, 0]"] ;
538 -> 539 ;
540 [label="residual sugar <= 18.85\ngini = 0.32\nsamples = 5\nvalue = [0, 0, 1, 4, 0, 0, 0]"] ;
538 -> 540 ;
541 [label="gini = 0.0\nsamples = 1\nvalue = [0, 0, 1, 0, 0, 0, 0]"] ;
540 -> 541 ;
542 [label="gini = 0.0\nsamples = 4\nvalue = [0, 0, 0, 4, 0, 0, 0]"] ;
540 -> 542 ;
543 [label="density <= 0.994\ngini = 0.492\nsamples = 22\nvalue = [0, 1, 14, 7, 0, 0, 0]"] ;
529 -> 543 ;
544 [label="gini = 0.0\nsamples = 4\nvalue = [0, 0, 0, 4, 0, 0, 0]"] ;
543 -> 544 ;
545 [label="fixed acidity <= 6.35\ngini = 0.364\nsamples = 18\nvalue = [0, 1, 14, 3, 0, 0, 0]"] ;
543 -> 545 ;
546 [label="total sulfur dioxide <= 160.5\ngini = 0.375\nsamples = 4\nvalue = [0, 0, 1, 3, 0, 0, 0]"] ;
545 -> 546 ;
547 [label="gini = 0.0\nsamples = 3\nvalue = [0, 0, 0, 3, 0, 0, 0]"] ;
546 -> 547 ;
548 [label="gini = 0.0\nsamples = 1\nvalue = [0, 0, 1, 0, 0, 0, 0]"] ;
546 -> 548 ;
549 [label="pH <= 3.48\ngini = 0.133\nsamples = 14\nvalue = [0, 1, 13, 0, 0, 0, 0]"] ;
545 -> 549 ;
550 [label="gini = 0.0\nsamples = 13\nvalue = [0, 0, 13, 0, 0, 0, 0]"] ;
549 -> 550 ;
551 [label="gini = 0.0\nsamples = 1\nvalue = [0, 1, 0, 0, 0, 0, 0]"] ;
549 -> 551 ;
552 [label="gini = 0.0\nsamples = 4\nvalue = [0, 0, 4, 0, 0, 0, 0]"] ;
518 -> 552 ;
553 [label="density <= 0.998\ngini = 0.585\nsamples = 161\nvalue = [0, 5, 86, 56, 14, 0, 0]"] ;
513 -> 553 ;
554 [label="free sulfur dioxide <= 67.5\ngini = 0.527\nsamples = 122\nvalue = [0, 4, 68, 49, 1, 0, 0]"] ;
553 -> 554 ;
555 [label="chlorides <= 0.065\ngini = 0.515\nsamples = 109\nvalue = [0, 4, 65, 39, 1, 0, 0]"] ;
554 -> 555 ;
556 [label="sulphates <= 0.495\ngini = 0.491\nsamples = 101\nvalue = [0, 3, 64, 33, 1, 0, 0]"] ;
555 -> 556 ;
557 [label="total sulfur dioxide <= 198.5\ngini = 0.397\nsamples = 66\nvalue = [0, 1, 49, 15, 1, 0, 0]"] ;
556 -> 557 ;
558 [label="citric acid <= 0.62\ngini = 0.272\nsamples = 39\nvalue = [0, 1, 33, 4, 1, 0, 0]"] ;
557 -> 558 ;
559 [label="citric acid <= 0.335\ngini = 0.234\nsamples = 38\nvalue = [0, 0, 33, 4, 1, 0, 0]"] ;
558 -> 559 ;
560 [label="volatile acidity <= 0.255\ngini = 0.571\nsamples = 7\nvalue = [0, 0, 4, 2, 1, 0, 0]"] ;
559 -> 560 ;
561 [label="total sulfur dioxide <= 173.5\ngini = 0.32\nsamples = 5\nvalue = [0, 0, 4, 0, 1, 0, 0]"] ;
560 -> 561 ;
562 [label="gini = 0.0\nsamples = 1\nvalue = [0, 0, 0, 0, 1, 0, 0]"] ;
561 -> 562 ;
563 [label="gini = 0.0\nsamples = 4\nvalue = [0, 0, 4, 0, 0, 0, 0]"] ;
561 -> 563 ;
564 [label="gini = 0.0\nsamples = 2\nvalue = [0, 0, 0, 2, 0, 0, 0]"] ;
560 -> 564 ;
565 [label="citric acid <= 0.515\ngini = 0.121\nsamples = 31\nvalue = [0, 0, 29, 2, 0, 0, 0]"] ;
559 -> 565 ;
566 [label="residual sugar <= 6.55\ngini = 0.067\nsamples = 29\nvalue = [0, 0, 28, 1, 0, 0, 0]"] ;
565 -> 566 ;
567 [label="total sulfur dioxide <= 184.5\ngini = 0.444\nsamples = 3\nvalue = [0, 0, 2, 1, 0, 0, 0]"] ;
566 -> 567 ;
568 [label="gini = 0.0\nsamples = 1\nvalue = [0, 0, 0, 1, 0, 0, 0]"] ;
567 -> 568 ;
569 [label="gini = 0.0\nsamples = 2\nvalue = [0, 0, 2, 0, 0, 0, 0]"] ;
567 -> 569 ;
570 [label="gini = 0.0\nsamples = 26\nvalue = [0, 0, 26, 0, 0, 0, 0]"] ;
566 -> 570 ;
571 [label="fixed acidity <= 7.15\ngini = 0.5\nsamples = 2\nvalue = [0, 0, 1, 1, 0, 0, 0]"] ;
565 -> 571 ;
572 [label="gini = 0.0\nsamples = 1\nvalue = [0, 0, 0, 1, 0, 0, 0]"] ;
571 -> 572 ;
573 [label="gini = 0.0\nsamples = 1\nvalue = [0, 0, 1, 0, 0, 0, 0]"] ;
571 -> 573 ;
574 [label="gini = 0.0\nsamples = 1\nvalue = [0, 1, 0, 0, 0, 0, 0]"] ;
558 -> 574 ;
575 [label="alcohol <= 9.05\ngini = 0.483\nsamples = 27\nvalue = [0, 0, 16, 11, 0, 0, 0]"] ;
557 -> 575 ;
576 [label="gini = 0.0\nsamples = 9\nvalue = [0, 0, 9, 0, 0, 0, 0]"] ;
575 -> 576 ;
577 [label="volatile acidity <= 0.275\ngini = 0.475\nsamples = 18\nvalue = [0, 0, 7, 11, 0, 0, 0]"] ;
575 -> 577 ;
578 [label="chlorides <= 0.046\ngini = 0.278\nsamples = 12\nvalue = [0, 0, 2, 10, 0, 0, 0]"] ;
577 -> 578 ;
579 [label="sulphates <= 0.44\ngini = 0.5\nsamples = 4\nvalue = [0, 0, 2, 2, 0, 0, 0]"] ;
578 -> 579 ;
580 [label="gini = 0.0\nsamples = 2\nvalue = [0, 0, 0, 2, 0, 0, 0]"] ;
579 -> 580 ;
581 [label="gini = 0.0\nsamples = 2\nvalue = [0, 0, 2, 0, 0, 0, 0]"] ;
579 -> 581 ;
582 [label="gini = 0.0\nsamples = 8\nvalue = [0, 0, 0, 8, 0, 0, 0]"] ;
578 -> 582 ;
583 [label="alcohol <= 9.35\ngini = 0.278\nsamples = 6\nvalue = [0, 0, 5, 1, 0, 0, 0]"] ;
577 -> 583 ;
584 [label="gini = 0.0\nsamples = 4\nvalue = [0, 0, 4, 0, 0, 0, 0]"] ;
583 -> 584 ;
585 [label="residual sugar <= 6.95\ngini = 0.5\nsamples = 2\nvalue = [0, 0, 1, 1, 0, 0, 0]"] ;
583 -> 585 ;
586 [label="gini = 0.0\nsamples = 1\nvalue = [0, 0, 1, 0, 0, 0, 0]"] ;
585 -> 586 ;
587 [label="gini = 0.0\nsamples = 1\nvalue = [0, 0, 0, 1, 0, 0, 0]"] ;
585 -> 587 ;
588 [label="density <= 0.995\ngini = 0.549\nsamples = 35\nvalue = [0, 2, 15, 18, 0, 0, 0]"] ;
556 -> 588 ;
589 [label="gini = 0.0\nsamples = 3\nvalue = [0, 0, 3, 0, 0, 0, 0]"] ;
588 -> 589 ;
590 [label="citric acid <= 0.425\ngini = 0.539\nsamples = 32\nvalue = [0, 2, 12, 18, 0, 0, 0]"] ;
588 -> 590 ;
591 [label="chlorides <= 0.038\ngini = 0.26\nsamples = 13\nvalue = [0, 0, 2, 11, 0, 0, 0]"] ;
590 -> 591 ;
592 [label="gini = 0.0\nsamples = 2\nvalue = [0, 0, 2, 0, 0, 0, 0]"] ;
591 -> 592 ;
593 [label="gini = 0.0\nsamples = 11\nvalue = [0, 0, 0, 11, 0, 0, 0]"] ;
591 -> 593 ;
594 [label="chlorides <= 0.043\ngini = 0.576\nsamples = 19\nvalue = [0, 2, 10, 7, 0, 0, 0]"] ;
590 -> 594 ;
595 [label="gini = 0.0\nsamples = 4\nvalue = [0, 0, 0, 4, 0, 0, 0]"] ;
594 -> 595 ;
596 [label="residual sugar <= 7.7\ngini = 0.498\nsamples = 15\nvalue = [0, 2, 10, 3, 0, 0, 0]"] ;
594 -> 596 ;
597 [label="gini = 0.0\nsamples = 2\nvalue = [0, 2, 0, 0, 0, 0, 0]"] ;
596 -> 597 ;
598 [label="free sulfur dioxide <= 48.5\ngini = 0.355\nsamples = 13\nvalue = [0, 0, 10, 3, 0, 0, 0]"] ;
596 -> 598 ;
599 [label="total sulfur dioxide <= 184.5\ngini = 0.444\nsamples = 3\nvalue = [0, 0, 1, 2, 0, 0, 0]"] ;
598 -> 599 ;
600 [label="gini = 0.0\nsamples = 1\nvalue = [0, 0, 1, 0, 0, 0, 0]"] ;
599 -> 600 ;
601 [label="gini = 0.0\nsamples = 2\nvalue = [0, 0, 0, 2, 0, 0, 0]"] ;
599 -> 601 ;
602 [label="fixed acidity <= 6.15\ngini = 0.18\nsamples = 10\nvalue = [0, 0, 9, 1, 0, 0, 0]"] ;
598 -> 602 ;
603 [label="gini = 0.0\nsamples = 1\nvalue = [0, 0, 0, 1, 0, 0, 0]"] ;
602 -> 603 ;
604 [label="gini = 0.0\nsamples = 9\nvalue = [0, 0, 9, 0, 0, 0, 0]"] ;
602 -> 604 ;
605 [label="volatile acidity <= 0.265\ngini = 0.406\nsamples = 8\nvalue = [0, 1, 1, 6, 0, 0, 0]"] ;
555 -> 605 ;
606 [label="gini = 0.0\nsamples = 6\nvalue = [0, 0, 0, 6, 0, 0, 0]"] ;
605 -> 606 ;
607 [label="pH <= 3.135\ngini = 0.5\nsamples = 2\nvalue = [0, 1, 1, 0, 0, 0, 0]"] ;
605 -> 607 ;
608 [label="gini = 0.0\nsamples = 1\nvalue = [0, 0, 1, 0, 0, 0, 0]"] ;
607 -> 608 ;
609 [label="gini = 0.0\nsamples = 1\nvalue = [0, 1, 0, 0, 0, 0, 0]"] ;
607 -> 609 ;
610 [label="alcohol <= 9.45\ngini = 0.355\nsamples = 13\nvalue = [0, 0, 3, 10, 0, 0, 0]"] ;
554 -> 610 ;
611 [label="volatile acidity <= 0.265\ngini = 0.5\nsamples = 6\nvalue = [0, 0, 3, 3, 0, 0, 0]"] ;
610 -> 611 ;
612 [label="gini = 0.0\nsamples = 2\nvalue = [0, 0, 0, 2, 0, 0, 0]"] ;
611 -> 612 ;
613 [label="total sulfur dioxide <= 180.5\ngini = 0.375\nsamples = 4\nvalue = [0, 0, 3, 1, 0, 0, 0]"] ;
611 -> 613 ;
614 [label="gini = 0.0\nsamples = 1\nvalue = [0, 0, 0, 1, 0, 0, 0]"] ;
613 -> 614 ;
615 [label="gini = 0.0\nsamples = 3\nvalue = [0, 0, 3, 0, 0, 0, 0]"] ;
613 -> 615 ;
616 [label="gini = 0.0\nsamples = 7\nvalue = [0, 0, 0, 7, 0, 0, 0]"] ;
610 -> 616 ;
617 [label="density <= 0.999\ngini = 0.643\nsamples = 39\nvalue = [0, 1, 18, 7, 13, 0, 0]"] ;
553 -> 617 ;
618 [label="residual sugar <= 15.1\ngini = 0.477\nsamples = 16\nvalue = [0, 0, 3, 2, 11, 0, 0]"] ;
617 -> 618 ;
619 [label="residual sugar <= 12.6\ngini = 0.153\nsamples = 12\nvalue = [0, 0, 1, 0, 11, 0, 0]"] ;
618 -> 619 ;
620 [label="gini = 0.0\nsamples = 1\nvalue = [0, 0, 1, 0, 0, 0, 0]"] ;
619 -> 620 ;
621 [label="gini = 0.0\nsamples = 11\nvalue = [0, 0, 0, 0, 11, 0, 0]"] ;
619 -> 621 ;
622 [label="sulphates <= 0.515\ngini = 0.5\nsamples = 4\nvalue = [0, 0, 2, 2, 0, 0, 0]"] ;
618 -> 622 ;
623 [label="gini = 0.0\nsamples = 2\nvalue = [0, 0, 0, 2, 0, 0, 0]"] ;
622 -> 623 ;
624 [label="gini = 0.0\nsamples = 2\nvalue = [0, 0, 2, 0, 0, 0, 0]"] ;
622 -> 624 ;
625 [label="pH <= 3.085\ngini = 0.518\nsamples = 23\nvalue = [0, 1, 15, 5, 2, 0, 0]"] ;
617 -> 625 ;
626 [label="citric acid <= 0.32\ngini = 0.571\nsamples = 7\nvalue = [0, 0, 2, 4, 1, 0, 0]"] ;
625 -> 626 ;
627 [label="gini = 0.0\nsamples = 4\nvalue = [0, 0, 0, 4, 0, 0, 0]"] ;
626 -> 627 ;
628 [label="citric acid <= 0.395\ngini = 0.444\nsamples = 3\nvalue = [0, 0, 2, 0, 1, 0, 0]"] ;
626 -> 628 ;
629 [label="gini = 0.0\nsamples = 1\nvalue = [0, 0, 0, 0, 1, 0, 0]"] ;
628 -> 629 ;
630 [label="gini = 0.0\nsamples = 2\nvalue = [0, 0, 2, 0, 0, 0, 0]"] ;
628 -> 630 ;
631 [label="citric acid <= 0.455\ngini = 0.328\nsamples = 16\nvalue = [0, 1, 13, 1, 1, 0, 0]"] ;
625 -> 631 ;
632 [label="pH <= 3.255\ngini = 0.133\nsamples = 14\nvalue = [0, 0, 13, 0, 1, 0, 0]"] ;
631 -> 632 ;
633 [label="gini = 0.0\nsamples = 12\nvalue = [0, 0, 12, 0, 0, 0, 0]"] ;
632 -> 633 ;
634 [label="chlorides <= 0.038\ngini = 0.5\nsamples = 2\nvalue = [0, 0, 1, 0, 1, 0, 0]"] ;
632 -> 634 ;
635 [label="gini = 0.0\nsamples = 1\nvalue = [0, 0, 1, 0, 0, 0, 0]"] ;
634 -> 635 ;
636 [label="gini = 0.0\nsamples = 1\nvalue = [0, 0, 0, 0, 1, 0, 0]"] ;
634 -> 636 ;
637 [label="alcohol <= 9.25\ngini = 0.5\nsamples = 2\nvalue = [0, 1, 0, 1, 0, 0, 0]"] ;
631 -> 637 ;
638 [label="gini = 0.0\nsamples = 1\nvalue = [0, 1, 0, 0, 0, 0, 0]"] ;
637 -> 638 ;
639 [label="gini = 0.0\nsamples = 1\nvalue = [0, 0, 0, 1, 0, 0, 0]"] ;
637 -> 639 ;
640 [label="density <= 1.001\ngini = 0.46\nsamples = 385\nvalue = [2, 31, 270, 79, 3, 0, 0]"] ;
466 -> 640 ;
641 [label="free sulfur dioxide <= 11.75\ngini = 0.45\nsamples = 380\nvalue = [2, 31, 270, 74, 3, 0, 0]"] ;
640 -> 641 ;
642 [label="residual sugar <= 3.25\ngini = 0.58\nsamples = 21\nvalue = [0, 10, 9, 2, 0, 0, 0]"] ;
641 -> 642 ;
643 [label="alcohol <= 8.6\ngini = 0.219\nsamples = 8\nvalue = [0, 7, 1, 0, 0, 0, 0]"] ;
642 -> 643 ;
644 [label="gini = 0.0\nsamples = 1\nvalue = [0, 0, 1, 0, 0, 0, 0]"] ;
643 -> 644 ;
645 [label="gini = 0.0\nsamples = 7\nvalue = [0, 7, 0, 0, 0, 0, 0]"] ;
643 -> 645 ;
646 [label="density <= 0.997\ngini = 0.544\nsamples = 13\nvalue = [0, 3, 8, 2, 0, 0, 0]"] ;
642 -> 646 ;
647 [label="volatile acidity <= 0.525\ngini = 0.397\nsamples = 11\nvalue = [0, 3, 8, 0, 0, 0, 0]"] ;
646 -> 647 ;
648 [label="alcohol <= 8.6\ngini = 0.198\nsamples = 9\nvalue = [0, 1, 8, 0, 0, 0, 0]"] ;
647 -> 648 ;
649 [label="gini = 0.0\nsamples = 1\nvalue = [0, 1, 0, 0, 0, 0, 0]"] ;
648 -> 649 ;
650 [label="gini = 0.0\nsamples = 8\nvalue = [0, 0, 8, 0, 0, 0, 0]"] ;
648 -> 650 ;
651 [label="gini = 0.0\nsamples = 2\nvalue = [0, 2, 0, 0, 0, 0, 0]"] ;
647 -> 651 ;
652 [label="gini = 0.0\nsamples = 2\nvalue = [0, 0, 0, 2, 0, 0, 0]"] ;
646 -> 652 ;
653 [label="volatile acidity <= 0.485\ngini = 0.428\nsamples = 359\nvalue = [2, 21, 261, 72, 3, 0, 0]"] ;
641 -> 653 ;
654 [label="sulphates <= 0.305\ngini = 0.392\nsamples = 307\nvalue = [0, 11, 231, 62, 3, 0, 0]"] ;
653 -> 654 ;
655 [label="gini = 0.0\nsamples = 2\nvalue = [0, 0, 0, 2, 0, 0, 0]"] ;
654 -> 655 ;
656 [label="pH <= 3.075\ngini = 0.386\nsamples = 305\nvalue = [0, 11, 231, 60, 3, 0, 0]"] ;
654 -> 656 ;
657 [label="volatile acidity <= 0.365\ngini = 0.238\nsamples = 82\nvalue = [0, 2, 71, 9, 0, 0, 0]"] ;
656 -> 657 ;
658 [label="density <= 0.998\ngini = 0.073\nsamples = 53\nvalue = [0, 1, 51, 1, 0, 0, 0]"] ;
657 -> 658 ;
659 [label="gini = 0.0\nsamples = 38\nvalue = [0, 0, 38, 0, 0, 0, 0]"] ;
658 -> 659 ;
660 [label="chlorides <= 0.043\ngini = 0.24\nsamples = 15\nvalue = [0, 1, 13, 1, 0, 0, 0]"] ;
658 -> 660 ;
661 [label="gini = 0.0\nsamples = 1\nvalue = [0, 0, 0, 1, 0, 0, 0]"] ;
660 -> 661 ;
662 [label="chlorides <= 0.053\ngini = 0.133\nsamples = 14\nvalue = [0, 1, 13, 0, 0, 0, 0]"] ;
660 -> 662 ;
663 [label="gini = 0.0\nsamples = 13\nvalue = [0, 0, 13, 0, 0, 0, 0]"] ;
662 -> 663 ;
664 [label="gini = 0.0\nsamples = 1\nvalue = [0, 1, 0, 0, 0, 0, 0]"] ;
662 -> 664 ;
665 [label="sulphates <= 0.555\ngini = 0.447\nsamples = 29\nvalue = [0, 1, 20, 8, 0, 0, 0]"] ;
657 -> 665 ;
666 [label="citric acid <= 0.205\ngini = 0.254\nsamples = 21\nvalue = [0, 1, 18, 2, 0, 0, 0]"] ;
665 -> 666 ;
667 [label="total sulfur dioxide <= 93.5\ngini = 0.64\nsamples = 5\nvalue = [0, 1, 2, 2, 0, 0, 0]"] ;
666 -> 667 ;
668 [label="gini = 0.0\nsamples = 2\nvalue = [0, 0, 2, 0, 0, 0, 0]"] ;
667 -> 668 ;
669 [label="free sulfur dioxide <= 22.5\ngini = 0.444\nsamples = 3\nvalue = [0, 1, 0, 2, 0, 0, 0]"] ;
667 -> 669 ;
670 [label="gini = 0.0\nsamples = 2\nvalue = [0, 0, 0, 2, 0, 0, 0]"] ;
669 -> 670 ;
671 [label="gini = 0.0\nsamples = 1\nvalue = [0, 1, 0, 0, 0, 0, 0]"] ;
669 -> 671 ;
672 [label="gini = 0.0\nsamples = 16\nvalue = [0, 0, 16, 0, 0, 0, 0]"] ;
666 -> 672 ;
673 [label="density <= 0.999\ngini = 0.375\nsamples = 8\nvalue = [0, 0, 2, 6, 0, 0, 0]"] ;
665 -> 673 ;
674 [label="gini = 0.0\nsamples = 6\nvalue = [0, 0, 0, 6, 0, 0, 0]"] ;
673 -> 674 ;
675 [label="gini = 0.0\nsamples = 2\nvalue = [0, 0, 2, 0, 0, 0, 0]"] ;
673 -> 675 ;
676 [label="chlorides <= 0.057\ngini = 0.431\nsamples = 223\nvalue = [0, 9, 160, 51, 3, 0, 0]"] ;
656 -> 676 ;
677 [label="citric acid <= 0.615\ngini = 0.378\nsamples = 161\nvalue = [0, 5, 123, 31, 2, 0, 0]"] ;
676 -> 677 ;
678 [label="total sulfur dioxide <= 192.5\ngini = 0.337\nsamples = 147\nvalue = [0, 3, 117, 25, 2, 0, 0]"] ;
677 -> 678 ;
679 [label="density <= 0.993\ngini = 0.245\nsamples = 101\nvalue = [0, 3, 87, 11, 0, 0, 0]"] ;
678 -> 679 ;
680 [label="sulphates <= 0.385\ngini = 0.375\nsamples = 4\nvalue = [0, 0, 1, 3, 0, 0, 0]"] ;
679 -> 680 ;
681 [label="gini = 0.0\nsamples = 1\nvalue = [0, 0, 1, 0, 0, 0, 0]"] ;
680 -> 681 ;
682 [label="gini = 0.0\nsamples = 3\nvalue = [0, 0, 0, 3, 0, 0, 0]"] ;
680 -> 682 ;
683 [label="free sulfur dioxide <= 15.5\ngini = 0.206\nsamples = 97\nvalue = [0, 3, 86, 8, 0, 0, 0]"] ;
679 -> 683 ;
684 [label="alcohol <= 9.1\ngini = 0.612\nsamples = 7\nvalue = [0, 3, 3, 1, 0, 0, 0]"] ;
683 -> 684 ;
685 [label="gini = 0.0\nsamples = 2\nvalue = [0, 2, 0, 0, 0, 0, 0]"] ;
684 -> 685 ;
686 [label="total sulfur dioxide <= 97.0\ngini = 0.56\nsamples = 5\nvalue = [0, 1, 3, 1, 0, 0, 0]"] ;
684 -> 686 ;
687 [label="residual sugar <= 1.8\ngini = 0.5\nsamples = 2\nvalue = [0, 1, 0, 1, 0, 0, 0]"] ;
686 -> 687 ;
688 [label="gini = 0.0\nsamples = 1\nvalue = [0, 1, 0, 0, 0, 0, 0]"] ;
687 -> 688 ;
689 [label="gini = 0.0\nsamples = 1\nvalue = [0, 0, 0, 1, 0, 0, 0]"] ;
687 -> 689 ;
690 [label="gini = 0.0\nsamples = 3\nvalue = [0, 0, 3, 0, 0, 0, 0]"] ;
686 -> 690 ;
691 [label="residual sugar <= 18.375\ngini = 0.143\nsamples = 90\nvalue = [0, 0, 83, 7, 0, 0, 0]"] ;
683 -> 691 ;
692 [label="sulphates <= 0.655\ngini = 0.126\nsamples = 89\nvalue = [0, 0, 83, 6, 0, 0, 0]"] ;
691 -> 692 ;
693 [label="citric acid <= 0.255\ngini = 0.108\nsamples = 87\nvalue = [0, 0, 82, 5, 0, 0, 0]"] ;
692 -> 693 ;
694 [label="gini = 0.0\nsamples = 41\nvalue = [0, 0, 41, 0, 0, 0, 0]"] ;
693 -> 694 ;
695 [label="chlorides <= 0.041\ngini = 0.194\nsamples = 46\nvalue = [0, 0, 41, 5, 0, 0, 0]"] ;
693 -> 695 ;
696 [label="gini = 0.0\nsamples = 1\nvalue = [0, 0, 0, 1, 0, 0, 0]"] ;
695 -> 696 ;
697 [label="free sulfur dioxide <= 33.5\ngini = 0.162\nsamples = 45\nvalue = [0, 0, 41, 4, 0, 0, 0]"] ;
695 -> 697 ;
698 [label="pH <= 3.125\ngini = 0.298\nsamples = 22\nvalue = [0, 0, 18, 4, 0, 0, 0]"] ;
697 -> 698 ;
699 [label="residual sugar <= 7.55\ngini = 0.48\nsamples = 5\nvalue = [0, 0, 2, 3, 0, 0, 0]"] ;
698 -> 699 ;
700 [label="gini = 0.0\nsamples = 2\nvalue = [0, 0, 2, 0, 0, 0, 0]"] ;
699 -> 700 ;
701 [label="gini = 0.0\nsamples = 3\nvalue = [0, 0, 0, 3, 0, 0, 0]"] ;
699 -> 701 ;
702 [label="free sulfur dioxide <= 31.5\ngini = 0.111\nsamples = 17\nvalue = [0, 0, 16, 1, 0, 0, 0]"] ;
698 -> 702 ;
703 [label="gini = 0.0\nsamples = 16\nvalue = [0, 0, 16, 0, 0, 0, 0]"] ;
702 -> 703 ;
704 [label="gini = 0.0\nsamples = 1\nvalue = [0, 0, 0, 1, 0, 0, 0]"] ;
702 -> 704 ;
705 [label="gini = 0.0\nsamples = 23\nvalue = [0, 0, 23, 0, 0, 0, 0]"] ;
697 -> 705 ;
706 [label="pH <= 3.235\ngini = 0.5\nsamples = 2\nvalue = [0, 0, 1, 1, 0, 0, 0]"] ;
692 -> 706 ;
707 [label="gini = 0.0\nsamples = 1\nvalue = [0, 0, 0, 1, 0, 0, 0]"] ;
706 -> 707 ;
708 [label="gini = 0.0\nsamples = 1\nvalue = [0, 0, 1, 0, 0, 0, 0]"] ;
706 -> 708 ;
709 [label="gini = 0.0\nsamples = 1\nvalue = [0, 0, 0, 1, 0, 0, 0]"] ;
691 -> 709 ;
710 [label="residual sugar <= 7.45\ngini = 0.48\nsamples = 46\nvalue = [0, 0, 30, 14, 2, 0, 0]"] ;
678 -> 710 ;
711 [label="gini = 0.0\nsamples = 4\nvalue = [0, 0, 0, 4, 0, 0, 0]"] ;
710 -> 711 ;
712 [label="alcohol <= 9.15\ngini = 0.431\nsamples = 42\nvalue = [0, 0, 30, 10, 2, 0, 0]"] ;
710 -> 712 ;
713 [label="volatile acidity <= 0.433\ngini = 0.218\nsamples = 25\nvalue = [0, 0, 22, 2, 1, 0, 0]"] ;
712 -> 713 ;
714 [label="alcohol <= 8.55\ngini = 0.153\nsamples = 24\nvalue = [0, 0, 22, 2, 0, 0, 0]"] ;
713 -> 714 ;
715 [label="gini = 0.0\nsamples = 1\nvalue = [0, 0, 0, 1, 0, 0, 0]"] ;
714 -> 715 ;
716 [label="pH <= 3.115\ngini = 0.083\nsamples = 23\nvalue = [0, 0, 22, 1, 0, 0, 0]"] ;
714 -> 716 ;
717 [label="total sulfur dioxide <= 216.5\ngini = 0.444\nsamples = 3\nvalue = [0, 0, 2, 1, 0, 0, 0]"] ;
716 -> 717 ;
718 [label="gini = 0.0\nsamples = 2\nvalue = [0, 0, 2, 0, 0, 0, 0]"] ;
717 -> 718 ;
719 [label="gini = 0.0\nsamples = 1\nvalue = [0, 0, 0, 1, 0, 0, 0]"] ;
717 -> 719 ;
720 [label="gini = 0.0\nsamples = 20\nvalue = [0, 0, 20, 0, 0, 0, 0]"] ;
716 -> 720 ;
721 [label="gini = 0.0\nsamples = 1\nvalue = [0, 0, 0, 0, 1, 0, 0]"] ;
713 -> 721 ;
722 [label="free sulfur dioxide <= 50.0\ngini = 0.554\nsamples = 17\nvalue = [0, 0, 8, 8, 1, 0, 0]"] ;
712 -> 722 ;
723 [label="sulphates <= 0.515\ngini = 0.278\nsamples = 6\nvalue = [0, 0, 0, 5, 1, 0, 0]"] ;
722 -> 723 ;
724 [label="gini = 0.0\nsamples = 1\nvalue = [0, 0, 0, 0, 1, 0, 0]"] ;
723 -> 724 ;
725 [label="gini = 0.0\nsamples = 5\nvalue = [0, 0, 0, 5, 0, 0, 0]"] ;
723 -> 725 ;
726 [label="citric acid <= 0.19\ngini = 0.397\nsamples = 11\nvalue = [0, 0, 8, 3, 0, 0, 0]"] ;
722 -> 726 ;
727 [label="gini = 0.0\nsamples = 2\nvalue = [0, 0, 0, 2, 0, 0, 0]"] ;
726 -> 727 ;
728 [label="pH <= 3.34\ngini = 0.198\nsamples = 9\nvalue = [0, 0, 8, 1, 0, 0, 0]"] ;
726 -> 728 ;
729 [label="gini = 0.0\nsamples = 8\nvalue = [0, 0, 8, 0, 0, 0, 0]"] ;
728 -> 729 ;
730 [label="gini = 0.0\nsamples = 1\nvalue = [0, 0, 0, 1, 0, 0, 0]"] ;
728 -> 730 ;
731 [label="pH <= 3.15\ngini = 0.612\nsamples = 14\nvalue = [0, 2, 6, 6, 0, 0, 0]"] ;
677 -> 731 ;
732 [label="total sulfur dioxide <= 166.5\ngini = 0.494\nsamples = 9\nvalue = [0, 2, 1, 6, 0, 0, 0]"] ;
731 -> 732 ;
733 [label="gini = 0.0\nsamples = 6\nvalue = [0, 0, 0, 6, 0, 0, 0]"] ;
732 -> 733 ;
734 [label="alcohol <= 9.0\ngini = 0.444\nsamples = 3\nvalue = [0, 2, 1, 0, 0, 0, 0]"] ;
732 -> 734 ;
735 [label="gini = 0.0\nsamples = 2\nvalue = [0, 2, 0, 0, 0, 0, 0]"] ;
734 -> 735 ;
736 [label="gini = 0.0\nsamples = 1\nvalue = [0, 0, 1, 0, 0, 0, 0]"] ;
734 -> 736 ;
737 [label="gini = 0.0\nsamples = 5\nvalue = [0, 0, 5, 0, 0, 0, 0]"] ;
731 -> 737 ;
738 [label="pH <= 3.265\ngini = 0.535\nsamples = 62\nvalue = [0, 4, 37, 20, 1, 0, 0]"] ;
676 -> 738 ;
739 [label="chlorides <= 0.064\ngini = 0.55\nsamples = 49\nvalue = [0, 2, 26, 20, 1, 0, 0]"] ;
738 -> 739 ;
740 [label="citric acid <= 0.43\ngini = 0.581\nsamples = 17\nvalue = [0, 2, 4, 10, 1, 0, 0]"] ;
739 -> 740 ;
741 [label="fixed acidity <= 6.45\ngini = 0.459\nsamples = 14\nvalue = [0, 1, 2, 10, 1, 0, 0]"] ;
740 -> 741 ;
742 [label="sulphates <= 0.465\ngini = 0.694\nsamples = 7\nvalue = [0, 1, 2, 3, 1, 0, 0]"] ;
741 -> 742 ;
743 [label="free sulfur dioxide <= 30.0\ngini = 0.5\nsamples = 2\nvalue = [0, 1, 0, 0, 1, 0, 0]"] ;
742 -> 743 ;
744 [label="gini = 0.0\nsamples = 1\nvalue = [0, 0, 0, 0, 1, 0, 0]"] ;
743 -> 744 ;
745 [label="gini = 0.0\nsamples = 1\nvalue = [0, 1, 0, 0, 0, 0, 0]"] ;
743 -> 745 ;
746 [label="sulphates <= 0.55\ngini = 0.48\nsamples = 5\nvalue = [0, 0, 2, 3, 0, 0, 0]"] ;
742 -> 746 ;
747 [label="sulphates <= 0.485\ngini = 0.444\nsamples = 3\nvalue = [0, 0, 2, 1, 0, 0, 0]"] ;
746 -> 747 ;
748 [label="gini = 0.0\nsamples = 1\nvalue = [0, 0, 0, 1, 0, 0, 0]"] ;
747 -> 748 ;
749 [label="gini = 0.0\nsamples = 2\nvalue = [0, 0, 2, 0, 0, 0, 0]"] ;
747 -> 749 ;
750 [label="gini = 0.0\nsamples = 2\nvalue = [0, 0, 0, 2, 0, 0, 0]"] ;
746 -> 750 ;
751 [label="gini = 0.0\nsamples = 7\nvalue = [0, 0, 0, 7, 0, 0, 0]"] ;
741 -> 751 ;
752 [label="pH <= 3.2\ngini = 0.444\nsamples = 3\nvalue = [0, 1, 2, 0, 0, 0, 0]"] ;
740 -> 752 ;
753 [label="gini = 0.0\nsamples = 2\nvalue = [0, 0, 2, 0, 0, 0, 0]"] ;
752 -> 753 ;
754 [label="gini = 0.0\nsamples = 1\nvalue = [0, 1, 0, 0, 0, 0, 0]"] ;
752 -> 754 ;
755 [label="chlorides <= 0.067\ngini = 0.43\nsamples = 32\nvalue = [0, 0, 22, 10, 0, 0, 0]"] ;
739 -> 755 ;
756 [label="gini = 0.0\nsamples = 8\nvalue = [0, 0, 8, 0, 0, 0, 0]"] ;
755 -> 756 ;
757 [label="pH <= 3.16\ngini = 0.486\nsamples = 24\nvalue = [0, 0, 14, 10, 0, 0, 0]"] ;
755 -> 757 ;
758 [label="residual sugar <= 1.35\ngini = 0.42\nsamples = 10\nvalue = [0, 0, 3, 7, 0, 0, 0]"] ;
757 -> 758 ;
759 [label="gini = 0.0\nsamples = 3\nvalue = [0, 0, 3, 0, 0, 0, 0]"] ;
758 -> 759 ;
760 [label="gini = 0.0\nsamples = 7\nvalue = [0, 0, 0, 7, 0, 0, 0]"] ;
758 -> 760 ;
761 [label="pH <= 3.235\ngini = 0.337\nsamples = 14\nvalue = [0, 0, 11, 3, 0, 0, 0]"] ;
757 -> 761 ;
762 [label="volatile acidity <= 0.315\ngini = 0.153\nsamples = 12\nvalue = [0, 0, 11, 1, 0, 0, 0]"] ;
761 -> 762 ;
763 [label="gini = 0.0\nsamples = 1\nvalue = [0, 0, 0, 1, 0, 0, 0]"] ;
762 -> 763 ;
764 [label="gini = 0.0\nsamples = 11\nvalue = [0, 0, 11, 0, 0, 0, 0]"] ;
762 -> 764 ;
765 [label="gini = 0.0\nsamples = 2\nvalue = [0, 0, 0, 2, 0, 0, 0]"] ;
761 -> 765 ;
766 [label="citric acid <= 0.175\ngini = 0.26\nsamples = 13\nvalue = [0, 2, 11, 0, 0, 0, 0]"] ;
738 -> 766 ;
767 [label="gini = 0.0\nsamples = 1\nvalue = [0, 1, 0, 0, 0, 0, 0]"] ;
766 -> 767 ;
768 [label="chlorides <= 0.089\ngini = 0.153\nsamples = 12\nvalue = [0, 1, 11, 0, 0, 0, 0]"] ;
766 -> 768 ;
769 [label="gini = 0.0\nsamples = 9\nvalue = [0, 0, 9, 0, 0, 0, 0]"] ;
768 -> 769 ;
770 [label="total sulfur dioxide <= 202.5\ngini = 0.444\nsamples = 3\nvalue = [0, 1, 2, 0, 0, 0, 0]"] ;
768 -> 770 ;
771 [label="gini = 0.0\nsamples = 1\nvalue = [0, 1, 0, 0, 0, 0, 0]"] ;
770 -> 771 ;
772 [label="gini = 0.0\nsamples = 2\nvalue = [0, 0, 2, 0, 0, 0, 0]"] ;
770 -> 772 ;
773 [label="residual sugar <= 3.25\ngini = 0.592\nsamples = 52\nvalue = [2, 10, 30, 10, 0, 0, 0]"] ;
653 -> 773 ;
774 [label="residual sugar <= 1.675\ngini = 0.704\nsamples = 14\nvalue = [1, 4, 4, 5, 0, 0, 0]"] ;
773 -> 774 ;
775 [label="alcohol <= 9.05\ngini = 0.594\nsamples = 8\nvalue = [1, 4, 3, 0, 0, 0, 0]"] ;
774 -> 775 ;
776 [label="residual sugar <= 1.3\ngini = 0.444\nsamples = 3\nvalue = [1, 0, 2, 0, 0, 0, 0]"] ;
775 -> 776 ;
777 [label="gini = 0.0\nsamples = 2\nvalue = [0, 0, 2, 0, 0, 0, 0]"] ;
776 -> 777 ;
778 [label="gini = 0.0\nsamples = 1\nvalue = [1, 0, 0, 0, 0, 0, 0]"] ;
776 -> 778 ;
779 [label="volatile acidity <= 0.605\ngini = 0.32\nsamples = 5\nvalue = [0, 4, 1, 0, 0, 0, 0]"] ;
775 -> 779 ;
780 [label="gini = 0.0\nsamples = 4\nvalue = [0, 4, 0, 0, 0, 0, 0]"] ;
779 -> 780 ;
781 [label="gini = 0.0\nsamples = 1\nvalue = [0, 0, 1, 0, 0, 0, 0]"] ;
779 -> 781 ;
782 [label="fixed acidity <= 5.65\ngini = 0.278\nsamples = 6\nvalue = [0, 0, 1, 5, 0, 0, 0]"] ;
774 -> 782 ;
783 [label="gini = 0.0\nsamples = 1\nvalue = [0, 0, 1, 0, 0, 0, 0]"] ;
782 -> 783 ;
784 [label="gini = 0.0\nsamples = 5\nvalue = [0, 0, 0, 5, 0, 0, 0]"] ;
782 -> 784 ;
785 [label="pH <= 3.305\ngini = 0.489\nsamples = 38\nvalue = [1, 6, 26, 5, 0, 0, 0]"] ;
773 -> 785 ;
786 [label="sulphates <= 0.53\ngini = 0.429\nsamples = 34\nvalue = [1, 3, 25, 5, 0, 0, 0]"] ;
785 -> 786 ;
787 [label="citric acid <= 0.435\ngini = 0.159\nsamples = 23\nvalue = [0, 0, 21, 2, 0, 0, 0]"] ;
786 -> 787 ;
788 [label="gini = 0.0\nsamples = 19\nvalue = [0, 0, 19, 0, 0, 0, 0]"] ;
787 -> 788 ;
789 [label="citric acid <= 0.515\ngini = 0.5\nsamples = 4\nvalue = [0, 0, 2, 2, 0, 0, 0]"] ;
787 -> 789 ;
790 [label="gini = 0.0\nsamples = 2\nvalue = [0, 0, 0, 2, 0, 0, 0]"] ;
789 -> 790 ;
791 [label="gini = 0.0\nsamples = 2\nvalue = [0, 0, 2, 0, 0, 0, 0]"] ;
789 -> 791 ;
792 [label="volatile acidity <= 0.535\ngini = 0.711\nsamples = 11\nvalue = [1, 3, 4, 3, 0, 0, 0]"] ;
786 -> 792 ;
793 [label="gini = 0.0\nsamples = 2\nvalue = [0, 0, 0, 2, 0, 0, 0]"] ;
792 -> 793 ;
794 [label="volatile acidity <= 0.595\ngini = 0.667\nsamples = 9\nvalue = [1, 3, 4, 1, 0, 0, 0]"] ;
792 -> 794 ;
795 [label="gini = 0.0\nsamples = 3\nvalue = [0, 0, 3, 0, 0, 0, 0]"] ;
794 -> 795 ;
796 [label="residual sugar <= 10.8\ngini = 0.667\nsamples = 6\nvalue = [1, 3, 1, 1, 0, 0, 0]"] ;
794 -> 796 ;
797 [label="citric acid <= 0.33\ngini = 0.667\nsamples = 3\nvalue = [1, 0, 1, 1, 0, 0, 0]"] ;
796 -> 797 ;
798 [label="volatile acidity <= 0.627\ngini = 0.5\nsamples = 2\nvalue = [0, 0, 1, 1, 0, 0, 0]"] ;
797 -> 798 ;
799 [label="gini = 0.0\nsamples = 1\nvalue = [0, 0, 1, 0, 0, 0, 0]"] ;
798 -> 799 ;
800 [label="gini = 0.0\nsamples = 1\nvalue = [0, 0, 0, 1, 0, 0, 0]"] ;
798 -> 800 ;
801 [label="gini = 0.0\nsamples = 1\nvalue = [1, 0, 0, 0, 0, 0, 0]"] ;
797 -> 801 ;
802 [label="gini = 0.0\nsamples = 3\nvalue = [0, 3, 0, 0, 0, 0, 0]"] ;
796 -> 802 ;
803 [label="citric acid <= 0.19\ngini = 0.375\nsamples = 4\nvalue = [0, 3, 1, 0, 0, 0, 0]"] ;
785 -> 803 ;
804 [label="gini = 0.0\nsamples = 3\nvalue = [0, 3, 0, 0, 0, 0, 0]"] ;
803 -> 804 ;
805 [label="gini = 0.0\nsamples = 1\nvalue = [0, 0, 1, 0, 0, 0, 0]"] ;
803 -> 805 ;
806 [label="gini = 0.0\nsamples = 5\nvalue = [0, 0, 0, 5, 0, 0, 0]"] ;
640 -> 806 ;
807 [label="volatile acidity <= 0.297\ngini = 0.618\nsamples = 694\nvalue = [4, 41, 298, 303, 41, 6, 1]"] ;
465 -> 807 ;
808 [label="free sulfur dioxide <= 14.5\ngini = 0.616\nsamples = 350\nvalue = [3, 13, 116, 180, 31, 6, 1]"] ;
807 -> 808 ;
809 [label="chlorides <= 0.035\ngini = 0.595\nsamples = 29\nvalue = [0, 6, 16, 7, 0, 0, 0]"] ;
808 -> 809 ;
810 [label="fixed acidity <= 6.15\ngini = 0.494\nsamples = 9\nvalue = [0, 1, 2, 6, 0, 0, 0]"] ;
809 -> 810 ;
811 [label="gini = 0.0\nsamples = 2\nvalue = [0, 0, 2, 0, 0, 0, 0]"] ;
810 -> 811 ;
812 [label="total sulfur dioxide <= 101.5\ngini = 0.245\nsamples = 7\nvalue = [0, 1, 0, 6, 0, 0, 0]"] ;
810 -> 812 ;
813 [label="gini = 0.0\nsamples = 5\nvalue = [0, 0, 0, 5, 0, 0, 0]"] ;
812 -> 813 ;
814 [label="fixed acidity <= 7.85\ngini = 0.5\nsamples = 2\nvalue = [0, 1, 0, 1, 0, 0, 0]"] ;
812 -> 814 ;
815 [label="gini = 0.0\nsamples = 1\nvalue = [0, 1, 0, 0, 0, 0, 0]"] ;
814 -> 815 ;
816 [label="gini = 0.0\nsamples = 1\nvalue = [0, 0, 0, 1, 0, 0, 0]"] ;
814 -> 816 ;
817 [label="free sulfur dioxide <= 9.5\ngini = 0.445\nsamples = 20\nvalue = [0, 5, 14, 1, 0, 0, 0]"] ;
809 -> 817 ;
818 [label="total sulfur dioxide <= 61.0\ngini = 0.494\nsamples = 9\nvalue = [0, 5, 4, 0, 0, 0, 0]"] ;
817 -> 818 ;
819 [label="gini = 0.0\nsamples = 3\nvalue = [0, 0, 3, 0, 0, 0, 0]"] ;
818 -> 819 ;
820 [label="total sulfur dioxide <= 114.0\ngini = 0.278\nsamples = 6\nvalue = [0, 5, 1, 0, 0, 0, 0]"] ;
818 -> 820 ;
821 [label="gini = 0.0\nsamples = 5\nvalue = [0, 5, 0, 0, 0, 0, 0]"] ;
820 -> 821 ;
822 [label="gini = 0.0\nsamples = 1\nvalue = [0, 0, 1, 0, 0, 0, 0]"] ;
820 -> 822 ;
823 [label="density <= 0.992\ngini = 0.165\nsamples = 11\nvalue = [0, 0, 10, 1, 0, 0, 0]"] ;
817 -> 823 ;
824 [label="gini = 0.0\nsamples = 1\nvalue = [0, 0, 0, 1, 0, 0, 0]"] ;
823 -> 824 ;
825 [label="gini = 0.0\nsamples = 10\nvalue = [0, 0, 10, 0, 0, 0, 0]"] ;
823 -> 825 ;
826 [label="total sulfur dioxide <= 162.5\ngini = 0.602\nsamples = 321\nvalue = [3, 7, 100, 173, 31, 6, 1]"] ;
808 -> 826 ;
827 [label="pH <= 3.315\ngini = 0.563\nsamples = 212\nvalue = [1, 4, 50, 129, 21, 6, 1]"] ;
826 -> 827 ;
828 [label="chlorides <= 0.054\ngini = 0.546\nsamples = 162\nvalue = [1, 4, 47, 98, 9, 2, 1]"] ;
827 -> 828 ;
829 [label="density <= 0.994\ngini = 0.507\nsamples = 137\nvalue = [0, 4, 33, 90, 7, 2, 1]"] ;
828 -> 829 ;
830 [label="sulphates <= 0.525\ngini = 0.525\nsamples = 75\nvalue = [0, 2, 27, 44, 0, 2, 0]"] ;
829 -> 830 ;
831 [label="density <= 0.993\ngini = 0.54\nsamples = 46\nvalue = [0, 2, 23, 21, 0, 0, 0]"] ;
830 -> 831 ;
832 [label="citric acid <= 0.345\ngini = 0.477\nsamples = 16\nvalue = [0, 2, 3, 11, 0, 0, 0]"] ;
831 -> 832 ;
833 [label="volatile acidity <= 0.275\ngini = 0.278\nsamples = 12\nvalue = [0, 0, 2, 10, 0, 0, 0]"] ;
832 -> 833 ;
834 [label="sulphates <= 0.405\ngini = 0.165\nsamples = 11\nvalue = [0, 0, 1, 10, 0, 0, 0]"] ;
833 -> 834 ;
835 [label="chlorides <= 0.032\ngini = 0.444\nsamples = 3\nvalue = [0, 0, 1, 2, 0, 0, 0]"] ;
834 -> 835 ;
836 [label="gini = 0.0\nsamples = 2\nvalue = [0, 0, 0, 2, 0, 0, 0]"] ;
835 -> 836 ;
837 [label="gini = 0.0\nsamples = 1\nvalue = [0, 0, 1, 0, 0, 0, 0]"] ;
835 -> 837 ;
838 [label="gini = 0.0\nsamples = 8\nvalue = [0, 0, 0, 8, 0, 0, 0]"] ;
834 -> 838 ;
839 [label="gini = 0.0\nsamples = 1\nvalue = [0, 0, 1, 0, 0, 0, 0]"] ;
833 -> 839 ;
840 [label="citric acid <= 0.435\ngini = 0.625\nsamples = 4\nvalue = [0, 2, 1, 1, 0, 0, 0]"] ;
832 -> 840 ;
841 [label="gini = 0.0\nsamples = 2\nvalue = [0, 2, 0, 0, 0, 0, 0]"] ;
840 -> 841 ;
842 [label="chlorides <= 0.04\ngini = 0.5\nsamples = 2\nvalue = [0, 0, 1, 1, 0, 0, 0]"] ;
840 -> 842 ;
843 [label="gini = 0.0\nsamples = 1\nvalue = [0, 0, 0, 1, 0, 0, 0]"] ;
842 -> 843 ;
844 [label="gini = 0.0\nsamples = 1\nvalue = [0, 0, 1, 0, 0, 0, 0]"] ;
842 -> 844 ;
845 [label="residual sugar <= 7.75\ngini = 0.444\nsamples = 30\nvalue = [0, 0, 20, 10, 0, 0, 0]"] ;
831 -> 845 ;
846 [label="sulphates <= 0.345\ngini = 0.355\nsamples = 26\nvalue = [0, 0, 20, 6, 0, 0, 0]"] ;
845 -> 846 ;
847 [label="pH <= 3.205\ngini = 0.444\nsamples = 3\nvalue = [0, 0, 1, 2, 0, 0, 0]"] ;
846 -> 847 ;
848 [label="gini = 0.0\nsamples = 2\nvalue = [0, 0, 0, 2, 0, 0, 0]"] ;
847 -> 848 ;
849 [label="gini = 0.0\nsamples = 1\nvalue = [0, 0, 1, 0, 0, 0, 0]"] ;
847 -> 849 ;
850 [label="pH <= 3.22\ngini = 0.287\nsamples = 23\nvalue = [0, 0, 19, 4, 0, 0, 0]"] ;
846 -> 850 ;
851 [label="residual sugar <= 1.05\ngini = 0.18\nsamples = 20\nvalue = [0, 0, 18, 2, 0, 0, 0]"] ;
850 -> 851 ;
852 [label="gini = 0.0\nsamples = 1\nvalue = [0, 0, 0, 1, 0, 0, 0]"] ;
851 -> 852 ;
853 [label="fixed acidity <= 6.55\ngini = 0.1\nsamples = 19\nvalue = [0, 0, 18, 1, 0, 0, 0]"] ;
851 -> 853 ;
854 [label="citric acid <= 0.25\ngini = 0.375\nsamples = 4\nvalue = [0, 0, 3, 1, 0, 0, 0]"] ;
853 -> 854 ;
855 [label="gini = 0.0\nsamples = 3\nvalue = [0, 0, 3, 0, 0, 0, 0]"] ;
854 -> 855 ;
856 [label="gini = 0.0\nsamples = 1\nvalue = [0, 0, 0, 1, 0, 0, 0]"] ;
854 -> 856 ;
857 [label="gini = 0.0\nsamples = 15\nvalue = [0, 0, 15, 0, 0, 0, 0]"] ;
853 -> 857 ;
858 [label="pH <= 3.255\ngini = 0.444\nsamples = 3\nvalue = [0, 0, 1, 2, 0, 0, 0]"] ;
850 -> 858 ;
859 [label="gini = 0.0\nsamples = 2\nvalue = [0, 0, 0, 2, 0, 0, 0]"] ;
858 -> 859 ;
860 [label="gini = 0.0\nsamples = 1\nvalue = [0, 0, 1, 0, 0, 0, 0]"] ;
858 -> 860 ;
861 [label="gini = 0.0\nsamples = 4\nvalue = [0, 0, 0, 4, 0, 0, 0]"] ;
845 -> 861 ;
862 [label="total sulfur dioxide <= 79.5\ngini = 0.347\nsamples = 29\nvalue = [0, 0, 4, 23, 0, 2, 0]"] ;
830 -> 862 ;
863 [label="free sulfur dioxide <= 20.0\ngini = 0.444\nsamples = 3\nvalue = [0, 0, 2, 1, 0, 0, 0]"] ;
862 -> 863 ;
864 [label="gini = 0.0\nsamples = 1\nvalue = [0, 0, 0, 1, 0, 0, 0]"] ;
863 -> 864 ;
865 [label="gini = 0.0\nsamples = 2\nvalue = [0, 0, 2, 0, 0, 0, 0]"] ;
863 -> 865 ;
866 [label="citric acid <= 0.495\ngini = 0.272\nsamples = 26\nvalue = [0, 0, 2, 22, 0, 2, 0]"] ;
862 -> 866 ;
867 [label="fixed acidity <= 7.9\ngini = 0.218\nsamples = 25\nvalue = [0, 0, 1, 22, 0, 2, 0]"] ;
866 -> 867 ;
868 [label="free sulfur dioxide <= 18.5\ngini = 0.156\nsamples = 24\nvalue = [0, 0, 1, 22, 0, 1, 0]"] ;
867 -> 868 ;
869 [label="fixed acidity <= 6.85\ngini = 0.625\nsamples = 4\nvalue = [0, 0, 1, 2, 0, 1, 0]"] ;
868 -> 869 ;
870 [label="pH <= 3.195\ngini = 0.5\nsamples = 2\nvalue = [0, 0, 1, 0, 0, 1, 0]"] ;
869 -> 870 ;
871 [label="gini = 0.0\nsamples = 1\nvalue = [0, 0, 1, 0, 0, 0, 0]"] ;
870 -> 871 ;
872 [label="gini = 0.0\nsamples = 1\nvalue = [0, 0, 0, 0, 0, 1, 0]"] ;
870 -> 872 ;
873 [label="gini = 0.0\nsamples = 2\nvalue = [0, 0, 0, 2, 0, 0, 0]"] ;
869 -> 873 ;
874 [label="gini = 0.0\nsamples = 20\nvalue = [0, 0, 0, 20, 0, 0, 0]"] ;
868 -> 874 ;
875 [label="gini = 0.0\nsamples = 1\nvalue = [0, 0, 0, 0, 0, 1, 0]"] ;
867 -> 875 ;
876 [label="gini = 0.0\nsamples = 1\nvalue = [0, 0, 1, 0, 0, 0, 0]"] ;
866 -> 876 ;
877 [label="fixed acidity <= 9.05\ngini = 0.426\nsamples = 62\nvalue = [0, 2, 6, 46, 7, 0, 1]"] ;
829 -> 877 ;
878 [label="density <= 0.996\ngini = 0.368\nsamples = 59\nvalue = [0, 0, 6, 46, 7, 0, 0]"] ;
877 -> 878 ;
879 [label="pH <= 3.27\ngini = 0.197\nsamples = 37\nvalue = [0, 0, 1, 33, 3, 0, 0]"] ;
878 -> 879 ;
880 [label="sulphates <= 0.71\ngini = 0.153\nsamples = 36\nvalue = [0, 0, 0, 33, 3, 0, 0]"] ;
879 -> 880 ;
881 [label="fixed acidity <= 5.9\ngini = 0.108\nsamples = 35\nvalue = [0, 0, 0, 33, 2, 0, 0]"] ;
880 -> 881 ;
882 [label="sulphates <= 0.515\ngini = 0.5\nsamples = 2\nvalue = [0, 0, 0, 1, 1, 0, 0]"] ;
881 -> 882 ;
883 [label="gini = 0.0\nsamples = 1\nvalue = [0, 0, 0, 1, 0, 0, 0]"] ;
882 -> 883 ;
884 [label="gini = 0.0\nsamples = 1\nvalue = [0, 0, 0, 0, 1, 0, 0]"] ;
882 -> 884 ;
885 [label="fixed acidity <= 7.6\ngini = 0.059\nsamples = 33\nvalue = [0, 0, 0, 32, 1, 0, 0]"] ;
881 -> 885 ;
886 [label="gini = 0.0\nsamples = 26\nvalue = [0, 0, 0, 26, 0, 0, 0]"] ;
885 -> 886 ;
887 [label="residual sugar <= 8.4\ngini = 0.245\nsamples = 7\nvalue = [0, 0, 0, 6, 1, 0, 0]"] ;
885 -> 887 ;
888 [label="gini = 0.0\nsamples = 6\nvalue = [0, 0, 0, 6, 0, 0, 0]"] ;
887 -> 888 ;
889 [label="gini = 0.0\nsamples = 1\nvalue = [0, 0, 0, 0, 1, 0, 0]"] ;
887 -> 889 ;
890 [label="gini = 0.0\nsamples = 1\nvalue = [0, 0, 0, 0, 1, 0, 0]"] ;
880 -> 890 ;
891 [label="gini = 0.0\nsamples = 1\nvalue = [0, 0, 1, 0, 0, 0, 0]"] ;
879 -> 891 ;
892 [label="pH <= 3.15\ngini = 0.566\nsamples = 22\nvalue = [0, 0, 5, 13, 4, 0, 0]"] ;
878 -> 892 ;
893 [label="density <= 0.997\ngini = 0.594\nsamples = 8\nvalue = [0, 0, 4, 1, 3, 0, 0]"] ;
892 -> 893 ;
894 [label="chlorides <= 0.046\ngini = 0.32\nsamples = 5\nvalue = [0, 0, 4, 1, 0, 0, 0]"] ;
893 -> 894 ;
895 [label="gini = 0.0\nsamples = 1\nvalue = [0, 0, 0, 1, 0, 0, 0]"] ;
894 -> 895 ;
896 [label="gini = 0.0\nsamples = 4\nvalue = [0, 0, 4, 0, 0, 0, 0]"] ;
894 -> 896 ;
897 [label="gini = 0.0\nsamples = 3\nvalue = [0, 0, 0, 0, 3, 0, 0]"] ;
893 -> 897 ;
898 [label="citric acid <= 0.44\ngini = 0.255\nsamples = 14\nvalue = [0, 0, 1, 12, 1, 0, 0]"] ;
892 -> 898 ;
899 [label="total sulfur dioxide <= 119.5\ngini = 0.142\nsamples = 13\nvalue = [0, 0, 1, 12, 0, 0, 0]"] ;
898 -> 899 ;
900 [label="chlorides <= 0.047\ngini = 0.5\nsamples = 2\nvalue = [0, 0, 1, 1, 0, 0, 0]"] ;
899 -> 900 ;
901 [label="gini = 0.0\nsamples = 1\nvalue = [0, 0, 0, 1, 0, 0, 0]"] ;
900 -> 901 ;
902 [label="gini = 0.0\nsamples = 1\nvalue = [0, 0, 1, 0, 0, 0, 0]"] ;
900 -> 902 ;
903 [label="gini = 0.0\nsamples = 11\nvalue = [0, 0, 0, 11, 0, 0, 0]"] ;
899 -> 903 ;
904 [label="gini = 0.0\nsamples = 1\nvalue = [0, 0, 0, 0, 1, 0, 0]"] ;
898 -> 904 ;
905 [label="fixed acidity <= 9.15\ngini = 0.444\nsamples = 3\nvalue = [0, 2, 0, 0, 0, 0, 1]"] ;
877 -> 905 ;
906 [label="gini = 0.0\nsamples = 1\nvalue = [0, 0, 0, 0, 0, 0, 1]"] ;
905 -> 906 ;
907 [label="gini = 0.0\nsamples = 2\nvalue = [0, 2, 0, 0, 0, 0, 0]"] ;
905 -> 907 ;
908 [label="chlorides <= 0.064\ngini = 0.576\nsamples = 25\nvalue = [1, 0, 14, 8, 2, 0, 0]"] ;
828 -> 908 ;
909 [label="total sulfur dioxide <= 125.5\ngini = 0.493\nsamples = 19\nvalue = [1, 0, 13, 3, 2, 0, 0]"] ;
908 -> 909 ;
910 [label="gini = 0.0\nsamples = 10\nvalue = [0, 0, 10, 0, 0, 0, 0]"] ;
909 -> 910 ;
911 [label="volatile acidity <= 0.245\ngini = 0.716\nsamples = 9\nvalue = [1, 0, 3, 3, 2, 0, 0]"] ;
909 -> 911 ;
912 [label="gini = 0.0\nsamples = 2\nvalue = [0, 0, 0, 0, 2, 0, 0]"] ;
911 -> 912 ;
913 [label="total sulfur dioxide <= 144.5\ngini = 0.612\nsamples = 7\nvalue = [1, 0, 3, 3, 0, 0, 0]"] ;
911 -> 913 ;
914 [label="gini = 0.0\nsamples = 3\nvalue = [0, 0, 0, 3, 0, 0, 0]"] ;
913 -> 914 ;
915 [label="total sulfur dioxide <= 160.0\ngini = 0.375\nsamples = 4\nvalue = [1, 0, 3, 0, 0, 0, 0]"] ;
913 -> 915 ;
916 [label="gini = 0.0\nsamples = 3\nvalue = [0, 0, 3, 0, 0, 0, 0]"] ;
915 -> 916 ;
917 [label="gini = 0.0\nsamples = 1\nvalue = [1, 0, 0, 0, 0, 0, 0]"] ;
915 -> 917 ;
918 [label="sulphates <= 0.5\ngini = 0.278\nsamples = 6\nvalue = [0, 0, 1, 5, 0, 0, 0]"] ;
908 -> 918 ;
919 [label="gini = 0.0\nsamples = 5\nvalue = [0, 0, 0, 5, 0, 0, 0]"] ;
918 -> 919 ;
920 [label="gini = 0.0\nsamples = 1\nvalue = [0, 0, 1, 0, 0, 0, 0]"] ;
918 -> 920 ;
921 [label="alcohol <= 10.35\ngini = 0.548\nsamples = 50\nvalue = [0, 0, 3, 31, 12, 4, 0]"] ;
827 -> 921 ;
922 [label="citric acid <= 0.2\ngini = 0.311\nsamples = 28\nvalue = [0, 0, 3, 23, 1, 1, 0]"] ;
921 -> 922 ;
923 [label="alcohol <= 10.1\ngini = 0.444\nsamples = 3\nvalue = [0, 0, 2, 1, 0, 0, 0]"] ;
922 -> 923 ;
924 [label="gini = 0.0\nsamples = 2\nvalue = [0, 0, 2, 0, 0, 0, 0]"] ;
923 -> 924 ;
925 [label="gini = 0.0\nsamples = 1\nvalue = [0, 0, 0, 1, 0, 0, 0]"] ;
923 -> 925 ;
926 [label="sulphates <= 0.7\ngini = 0.221\nsamples = 25\nvalue = [0, 0, 1, 22, 1, 1, 0]"] ;
922 -> 926 ;
927 [label="alcohol <= 9.65\ngini = 0.156\nsamples = 24\nvalue = [0, 0, 0, 22, 1, 1, 0]"] ;
926 -> 927 ;
928 [label="residual sugar <= 8.325\ngini = 0.5\nsamples = 2\nvalue = [0, 0, 0, 1, 0, 1, 0]"] ;
927 -> 928 ;
929 [label="gini = 0.0\nsamples = 1\nvalue = [0, 0, 0, 0, 0, 1, 0]"] ;
928 -> 929 ;
930 [label="gini = 0.0\nsamples = 1\nvalue = [0, 0, 0, 1, 0, 0, 0]"] ;
928 -> 930 ;
931 [label="density <= 0.993\ngini = 0.087\nsamples = 22\nvalue = [0, 0, 0, 21, 1, 0, 0]"] ;
927 -> 931 ;
932 [label="chlorides <= 0.049\ngini = 0.444\nsamples = 3\nvalue = [0, 0, 0, 2, 1, 0, 0]"] ;
931 -> 932 ;
933 [label="gini = 0.0\nsamples = 1\nvalue = [0, 0, 0, 0, 1, 0, 0]"] ;
932 -> 933 ;
934 [label="gini = 0.0\nsamples = 2\nvalue = [0, 0, 0, 2, 0, 0, 0]"] ;
932 -> 934 ;
935 [label="gini = 0.0\nsamples = 19\nvalue = [0, 0, 0, 19, 0, 0, 0]"] ;
931 -> 935 ;
936 [label="gini = 0.0\nsamples = 1\nvalue = [0, 0, 1, 0, 0, 0, 0]"] ;
926 -> 936 ;
937 [label="total sulfur dioxide <= 114.5\ngini = 0.599\nsamples = 22\nvalue = [0, 0, 0, 8, 11, 3, 0]"] ;
921 -> 937 ;
938 [label="citric acid <= 0.265\ngini = 0.278\nsamples = 6\nvalue = [0, 0, 0, 5, 1, 0, 0]"] ;
937 -> 938 ;
939 [label="gini = 0.0\nsamples = 4\nvalue = [0, 0, 0, 4, 0, 0, 0]"] ;
938 -> 939 ;
940 [label="free sulfur dioxide <= 25.5\ngini = 0.5\nsamples = 2\nvalue = [0, 0, 0, 1, 1, 0, 0]"] ;
938 -> 940 ;
941 [label="gini = 0.0\nsamples = 1\nvalue = [0, 0, 0, 1, 0, 0, 0]"] ;
940 -> 941 ;
942 [label="gini = 0.0\nsamples = 1\nvalue = [0, 0, 0, 0, 1, 0, 0]"] ;
940 -> 942 ;
943 [label="fixed acidity <= 6.5\ngini = 0.539\nsamples = 16\nvalue = [0, 0, 0, 3, 10, 3, 0]"] ;
937 -> 943 ;
944 [label="total sulfur dioxide <= 117.0\ngini = 0.219\nsamples = 8\nvalue = [0, 0, 0, 0, 7, 1, 0]"] ;
943 -> 944 ;
945 [label="gini = 0.0\nsamples = 1\nvalue = [0, 0, 0, 0, 0, 1, 0]"] ;
944 -> 945 ;
946 [label="gini = 0.0\nsamples = 7\nvalue = [0, 0, 0, 0, 7, 0, 0]"] ;
944 -> 946 ;
947 [label="sulphates <= 0.515\ngini = 0.656\nsamples = 8\nvalue = [0, 0, 0, 3, 3, 2, 0]"] ;
943 -> 947 ;
948 [label="gini = 0.0\nsamples = 2\nvalue = [0, 0, 0, 0, 0, 2, 0]"] ;
947 -> 948 ;
949 [label="residual sugar <= 2.0\ngini = 0.5\nsamples = 6\nvalue = [0, 0, 0, 3, 3, 0, 0]"] ;
947 -> 949 ;
950 [label="gini = 0.0\nsamples = 2\nvalue = [0, 0, 0, 0, 2, 0, 0]"] ;
949 -> 950 ;
951 [label="fixed acidity <= 7.4\ngini = 0.375\nsamples = 4\nvalue = [0, 0, 0, 3, 1, 0, 0]"] ;
949 -> 951 ;
952 [label="gini = 0.0\nsamples = 3\nvalue = [0, 0, 0, 3, 0, 0, 0]"] ;
951 -> 952 ;
953 [label="gini = 0.0\nsamples = 1\nvalue = [0, 0, 0, 0, 1, 0, 0]"] ;
951 -> 953 ;
954 [label="chlorides <= 0.05\ngini = 0.617\nsamples = 109\nvalue = [2, 3, 50, 44, 10, 0, 0]"] ;
826 -> 954 ;
955 [label="free sulfur dioxide <= 28.5\ngini = 0.603\nsamples = 86\nvalue = [1, 1, 33, 42, 9, 0, 0]"] ;
954 -> 955 ;
956 [label="volatile acidity <= 0.255\ngini = 0.298\nsamples = 11\nvalue = [0, 0, 9, 2, 0, 0, 0]"] ;
955 -> 956 ;
957 [label="free sulfur dioxide <= 25.0\ngini = 0.444\nsamples = 3\nvalue = [0, 0, 1, 2, 0, 0, 0]"] ;
956 -> 957 ;
958 [label="gini = 0.0\nsamples = 2\nvalue = [0, 0, 0, 2, 0, 0, 0]"] ;
957 -> 958 ;
959 [label="gini = 0.0\nsamples = 1\nvalue = [0, 0, 1, 0, 0, 0, 0]"] ;
957 -> 959 ;
960 [label="gini = 0.0\nsamples = 8\nvalue = [0, 0, 8, 0, 0, 0, 0]"] ;
956 -> 960 ;
961 [label="sulphates <= 0.69\ngini = 0.598\nsamples = 75\nvalue = [1, 1, 24, 40, 9, 0, 0]"] ;
955 -> 961 ;
962 [label="sulphates <= 0.52\ngini = 0.587\nsamples = 71\nvalue = [1, 1, 20, 40, 9, 0, 0]"] ;
961 -> 962 ;
963 [label="volatile acidity <= 0.285\ngini = 0.519\nsamples = 41\nvalue = [0, 0, 18, 22, 1, 0, 0]"] ;
962 -> 963 ;
964 [label="residual sugar <= 14.55\ngini = 0.493\nsamples = 34\nvalue = [0, 0, 12, 21, 1, 0, 0]"] ;
963 -> 964 ;
965 [label="density <= 0.996\ngini = 0.42\nsamples = 30\nvalue = [0, 0, 9, 21, 0, 0, 0]"] ;
964 -> 965 ;
966 [label="density <= 0.995\ngini = 0.49\nsamples = 21\nvalue = [0, 0, 9, 12, 0, 0, 0]"] ;
965 -> 966 ;
967 [label="residual sugar <= 1.35\ngini = 0.298\nsamples = 11\nvalue = [0, 0, 2, 9, 0, 0, 0]"] ;
966 -> 967 ;
968 [label="gini = 0.0\nsamples = 2\nvalue = [0, 0, 2, 0, 0, 0, 0]"] ;
967 -> 968 ;
969 [label="gini = 0.0\nsamples = 9\nvalue = [0, 0, 0, 9, 0, 0, 0]"] ;
967 -> 969 ;
970 [label="total sulfur dioxide <= 206.5\ngini = 0.42\nsamples = 10\nvalue = [0, 0, 7, 3, 0, 0, 0]"] ;
966 -> 970 ;
971 [label="free sulfur dioxide <= 68.0\ngini = 0.219\nsamples = 8\nvalue = [0, 0, 7, 1, 0, 0, 0]"] ;
970 -> 971 ;
972 [label="gini = 0.0\nsamples = 7\nvalue = [0, 0, 7, 0, 0, 0, 0]"] ;
971 -> 972 ;
973 [label="gini = 0.0\nsamples = 1\nvalue = [0, 0, 0, 1, 0, 0, 0]"] ;
971 -> 973 ;
974 [label="gini = 0.0\nsamples = 2\nvalue = [0, 0, 0, 2, 0, 0, 0]"] ;
970 -> 974 ;
975 [label="gini = 0.0\nsamples = 9\nvalue = [0, 0, 0, 9, 0, 0, 0]"] ;
965 -> 975 ;
976 [label="sulphates <= 0.465\ngini = 0.375\nsamples = 4\nvalue = [0, 0, 3, 0, 1, 0, 0]"] ;
964 -> 976 ;
977 [label="gini = 0.0\nsamples = 3\nvalue = [0, 0, 3, 0, 0, 0, 0]"] ;
976 -> 977 ;
978 [label="gini = 0.0\nsamples = 1\nvalue = [0, 0, 0, 0, 1, 0, 0]"] ;
976 -> 978 ;
979 [label="residual sugar <= 12.6\ngini = 0.245\nsamples = 7\nvalue = [0, 0, 6, 1, 0, 0, 0]"] ;
963 -> 979 ;
980 [label="gini = 0.0\nsamples = 6\nvalue = [0, 0, 6, 0, 0, 0, 0]"] ;
979 -> 980 ;
981 [label="gini = 0.0\nsamples = 1\nvalue = [0, 0, 0, 1, 0, 0, 0]"] ;
979 -> 981 ;
982 [label="pH <= 3.245\ngini = 0.562\nsamples = 30\nvalue = [1, 1, 2, 18, 8, 0, 0]"] ;
962 -> 982 ;
983 [label="gini = 0.0\nsamples = 13\nvalue = [0, 0, 0, 13, 0, 0, 0]"] ;
982 -> 983 ;
984 [label="sulphates <= 0.595\ngini = 0.671\nsamples = 17\nvalue = [1, 1, 2, 5, 8, 0, 0]"] ;
982 -> 984 ;
985 [label="free sulfur dioxide <= 56.25\ngini = 0.446\nsamples = 11\nvalue = [0, 1, 1, 1, 8, 0, 0]"] ;
984 -> 985 ;
986 [label="residual sugar <= 13.25\ngini = 0.198\nsamples = 9\nvalue = [0, 0, 1, 0, 8, 0, 0]"] ;
985 -> 986 ;
987 [label="gini = 0.0\nsamples = 8\nvalue = [0, 0, 0, 0, 8, 0, 0]"] ;
986 -> 987 ;
988 [label="gini = 0.0\nsamples = 1\nvalue = [0, 0, 1, 0, 0, 0, 0]"] ;
986 -> 988 ;
989 [label="sulphates <= 0.555\ngini = 0.5\nsamples = 2\nvalue = [0, 1, 0, 1, 0, 0, 0]"] ;
985 -> 989 ;
990 [label="gini = 0.0\nsamples = 1\nvalue = [0, 1, 0, 0, 0, 0, 0]"] ;
989 -> 990 ;
991 [label="gini = 0.0\nsamples = 1\nvalue = [0, 0, 0, 1, 0, 0, 0]"] ;
989 -> 991 ;
992 [label="total sulfur dioxide <= 189.5\ngini = 0.5\nsamples = 6\nvalue = [1, 0, 1, 4, 0, 0, 0]"] ;
984 -> 992 ;
993 [label="gini = 0.0\nsamples = 4\nvalue = [0, 0, 0, 4, 0, 0, 0]"] ;
992 -> 993 ;
994 [label="alcohol <= 10.55\ngini = 0.5\nsamples = 2\nvalue = [1, 0, 1, 0, 0, 0, 0]"] ;
992 -> 994 ;
995 [label="gini = 0.0\nsamples = 1\nvalue = [1, 0, 0, 0, 0, 0, 0]"] ;
994 -> 995 ;
996 [label="gini = 0.0\nsamples = 1\nvalue = [0, 0, 1, 0, 0, 0, 0]"] ;
994 -> 996 ;
997 [label="gini = 0.0\nsamples = 4\nvalue = [0, 0, 4, 0, 0, 0, 0]"] ;
961 -> 997 ;
998 [label="citric acid <= 0.54\ngini = 0.435\nsamples = 23\nvalue = [1, 2, 17, 2, 1, 0, 0]"] ;
954 -> 998 ;
999 [label="chlorides <= 0.071\ngini = 0.27\nsamples = 20\nvalue = [1, 1, 17, 1, 0, 0, 0]"] ;
998 -> 999 ;
1000 [label="volatile acidity <= 0.275\ngini = 0.105\nsamples = 18\nvalue = [0, 0, 17, 1, 0, 0, 0]"] ;
999 -> 1000 ;
1001 [label="gini = 0.0\nsamples = 16\nvalue = [0, 0, 16, 0, 0, 0, 0]"] ;
1000 -> 1001 ;
1002 [label="total sulfur dioxide <= 189.5\ngini = 0.5\nsamples = 2\nvalue = [0, 0, 1, 1, 0, 0, 0]"] ;
1000 -> 1002 ;
1003 [label="gini = 0.0\nsamples = 1\nvalue = [0, 0, 1, 0, 0, 0, 0]"] ;
1002 -> 1003 ;
1004 [label="gini = 0.0\nsamples = 1\nvalue = [0, 0, 0, 1, 0, 0, 0]"] ;
1002 -> 1004 ;
1005 [label="total sulfur dioxide <= 194.0\ngini = 0.5\nsamples = 2\nvalue = [1, 1, 0, 0, 0, 0, 0]"] ;
999 -> 1005 ;
1006 [label="gini = 0.0\nsamples = 1\nvalue = [0, 1, 0, 0, 0, 0, 0]"] ;
1005 -> 1006 ;
1007 [label="gini = 0.0\nsamples = 1\nvalue = [1, 0, 0, 0, 0, 0, 0]"] ;
1005 -> 1007 ;
1008 [label="density <= 0.996\ngini = 0.667\nsamples = 3\nvalue = [0, 1, 0, 1, 1, 0, 0]"] ;
998 -> 1008 ;
1009 [label="gini = 0.0\nsamples = 1\nvalue = [0, 0, 0, 0, 1, 0, 0]"] ;
1008 -> 1009 ;
1010 [label="sulphates <= 0.44\ngini = 0.5\nsamples = 2\nvalue = [0, 1, 0, 1, 0, 0, 0]"] ;
1008 -> 1010 ;
1011 [label="gini = 0.0\nsamples = 1\nvalue = [0, 1, 0, 0, 0, 0, 0]"] ;
1010 -> 1011 ;
1012 [label="gini = 0.0\nsamples = 1\nvalue = [0, 0, 0, 1, 0, 0, 0]"] ;
1010 -> 1012 ;
1013 [label="fixed acidity <= 9.6\ngini = 0.585\nsamples = 344\nvalue = [1, 28, 182, 123, 10, 0, 0]"] ;
807 -> 1013 ;
1014 [label="residual sugar <= 6.45\ngini = 0.575\nsamples = 339\nvalue = [1, 23, 182, 123, 10, 0, 0]"] ;
1013 -> 1014 ;
1015 [label="free sulfur dioxide <= 33.5\ngini = 0.573\nsamples = 193\nvalue = [1, 20, 113, 52, 7, 0, 0]"] ;
1014 -> 1015 ;
1016 [label="free sulfur dioxide <= 21.5\ngini = 0.631\nsamples = 139\nvalue = [1, 19, 71, 41, 7, 0, 0]"] ;
1015 -> 1016 ;
1017 [label="density <= 0.993\ngini = 0.56\nsamples = 83\nvalue = [1, 13, 51, 16, 2, 0, 0]"] ;
1016 -> 1017 ;
1018 [label="alcohol <= 9.95\ngini = 0.657\nsamples = 44\nvalue = [1, 7, 21, 13, 2, 0, 0]"] ;
1017 -> 1018 ;
1019 [label="citric acid <= 0.135\ngini = 0.245\nsamples = 7\nvalue = [0, 0, 1, 6, 0, 0, 0]"] ;
1018 -> 1019 ;
1020 [label="gini = 0.0\nsamples = 1\nvalue = [0, 0, 1, 0, 0, 0, 0]"] ;
1019 -> 1020 ;
1021 [label="gini = 0.0\nsamples = 6\nvalue = [0, 0, 0, 6, 0, 0, 0]"] ;
1019 -> 1021 ;
1022 [label="pH <= 3.31\ngini = 0.633\nsamples = 37\nvalue = [1, 7, 20, 7, 2, 0, 0]"] ;
1018 -> 1022 ;
1023 [label="citric acid <= 0.36\ngini = 0.529\nsamples = 31\nvalue = [1, 6, 20, 4, 0, 0, 0]"] ;
1022 -> 1023 ;
1024 [label="free sulfur dioxide <= 6.5\ngini = 0.322\nsamples = 21\nvalue = [0, 3, 17, 1, 0, 0, 0]"] ;
1023 -> 1024 ;
1025 [label="gini = 0.0\nsamples = 1\nvalue = [0, 0, 0, 1, 0, 0, 0]"] ;
1024 -> 1025 ;
1026 [label="residual sugar <= 1.3\ngini = 0.255\nsamples = 20\nvalue = [0, 3, 17, 0, 0, 0, 0]"] ;
1024 -> 1026 ;
1027 [label="residual sugar <= 1.15\ngini = 0.469\nsamples = 8\nvalue = [0, 3, 5, 0, 0, 0, 0]"] ;
1026 -> 1027 ;
1028 [label="free sulfur dioxide <= 10.5\ngini = 0.278\nsamples = 6\nvalue = [0, 1, 5, 0, 0, 0, 0]"] ;
1027 -> 1028 ;
1029 [label="gini = 0.0\nsamples = 1\nvalue = [0, 1, 0, 0, 0, 0, 0]"] ;
1028 -> 1029 ;
1030 [label="gini = 0.0\nsamples = 5\nvalue = [0, 0, 5, 0, 0, 0, 0]"] ;
1028 -> 1030 ;
1031 [label="gini = 0.0\nsamples = 2\nvalue = [0, 2, 0, 0, 0, 0, 0]"] ;
1027 -> 1031 ;
